<?xml version="1.0"?>
<opencv_storage>
<opencv_ml_svm>
  <format>3</format>
  <svmType>C_SVC</svmType>
  <kernel>
    <type>RBF</type>
    <gamma>1.</gamma></kernel>
  <C>5.</C>
  <term_criteria><iterations>1000</iterations></term_criteria>
  <var_count>100</var_count>
  <class_count>5</class_count>
  <class_labels type_id="opencv-matrix">
    <rows>5</rows>
    <cols>1</cols>
    <dt>i</dt>
    <data>
      1 2 3 4 5</data></class_labels>
  <sv_total>198</sv_total>
  <support_vectors>
    <_>
      0. 7.35214651e-02 0. 0. 2.20564395e-01 0. 4.41128790e-01 0. 0. 0.
      0. 7.35214651e-02 7.35214651e-02 0. 0. 1.47042930e-01
      7.35214651e-02 0. 0. 0. 0. 7.35214651e-02 0. 0. 0. 0.
      7.35214651e-02 0. 0. 0. 0. 0. 0. 0. 2.20564395e-01 0.
      1.47042930e-01 0. 2.94085860e-01 0. 0. 0. 0. 0. 0. 0.
      1.47042930e-01 0. 0. 7.35214651e-02 0. 0. 1.47042930e-01 0.
      7.35214651e-02 3.67607296e-01 0. 0. 0. 0. 2.20564395e-01
      7.35214651e-02 0. 7.35214651e-02 0. 7.35214651e-02 0. 0. 0. 0.
      1.47042930e-01 7.35214651e-02 0. 0. 0. 1.47042930e-01 0.
      2.20564395e-01 1.47042930e-01 0. 7.35214651e-02 0. 0.
      7.35214651e-02 2.20564395e-01 7.35214651e-02 0. 1.47042930e-01 0.
      7.35214651e-02 0. 0. 0. 7.35214651e-02 1.47042930e-01 0. 0.
      7.35214651e-02 2.20564395e-01 0.</_>
    <_>
      0. 0. 0. 2.75009573e-01 0. 0. 9.16698501e-02 0. 9.16698501e-02 0.
      9.16698501e-02 0. 0. 0. 1.83339700e-01 9.16698501e-02
      9.16698501e-02 0. 1.83339700e-01 0. 9.16698501e-02 9.16698501e-02
      0. 0. 1.83339700e-01 0. 0. 0. 0. 0. 0. 0. 0. 0. 0. 9.16698501e-02
      0. 9.16698501e-02 2.75009573e-01 1.83339700e-01 0. 0.
      9.16698501e-02 0. 0. 0. 0. 0. 0. 0. 0. 9.16698501e-02 0. 0.
      9.16698501e-02 0. 0. 0. 0. 0. 0. 2.75009573e-01 0. 0. 0. 0. 0. 0.
      9.16698501e-02 0. 0. 0. 0. 0. 9.16698501e-02 0. 0. 5.50019145e-01
      9.16698501e-02 0. 1.83339700e-01 0. 2.75009573e-01 1.83339700e-01
      1.83339700e-01 0. 9.16698501e-02 0. 0. 0. 0. 9.16698501e-02 0. 0.
      0. 0. 0. 9.16698501e-02 9.16698501e-02 0.</_>
    <_>
      0. 5.03154583e-02 5.03154583e-02 5.03154583e-02 5.03154583e-02
      5.03154583e-02 5.03154583e-02 5.03154583e-02 0. 0. 0.
      5.03154583e-02 0. 0. 0. 3.52208227e-01 5.03154583e-02 0.
      5.03154583e-02 5.03154583e-02 5.03154583e-02 1.00630917e-01
      1.50946379e-01 0. 0. 1.00630917e-01 5.03154583e-02 0. 0.
      5.03154583e-02 1.00630917e-01 0. 0. 0. 1.50946379e-01
      2.01261833e-01 5.03154583e-02 0. 5.03154583e-02 0. 5.03154583e-02
      0. 1.00630917e-01 5.03154583e-02 0. 0. 5.03154583e-02 0.
      5.03154583e-02 5.03154583e-02 1.00630917e-01 0. 0. 5.03154583e-02
      1.00630917e-01 3.01892757e-01 5.03154583e-02 0. 5.03154583e-02
      1.00630917e-01 0. 1.00630917e-01 5.03154583e-02 0. 5.03154583e-02
      5.03154583e-02 1.00630917e-01 0. 2.51577288e-01 0. 0.
      1.00630917e-01 1.50946379e-01 0. 5.03154583e-02 0. 0.
      5.03154576e-01 5.03154583e-02 1.00630917e-01 1.50946379e-01
      5.03154583e-02 1.00630917e-01 1.00630917e-01 2.51577288e-01
      1.00630917e-01 5.03154583e-02 1.50946379e-01 0. 0. 5.03154583e-02
      5.03154583e-02 0. 0. 1.00630917e-01 1.00630917e-01 5.03154583e-02
      0. 5.03154583e-02 0.</_>
    <_>
      0. 0. 0. 6.00841753e-02 0. 0. 3.00420880e-01 0. 6.00841753e-02 0.
      0. 0. 0. 0. 6.00841753e-02 2.40336701e-01 0. 0. 0. 0.
      6.00841753e-02 1.80252522e-01 0. 6.00841753e-02 0. 0. 0. 0. 0. 0.
      6.00841753e-02 0. 0. 0. 3.00420880e-01 3.00420880e-01
      6.00841753e-02 0. 1.20168351e-01 0. 6.00841753e-02 0. 0. 0. 0. 0.
      6.00841753e-02 1.20168351e-01 0. 6.00841753e-02 6.00841753e-02 0.
      6.00841753e-02 6.00841753e-02 3.00420880e-01 0. 6.00841753e-02 0.
      1.20168351e-01 0. 0. 0. 6.00841753e-02 0. 6.00841753e-02
      6.00841753e-02 0. 0. 0. 0. 0. 1.20168351e-01 6.00841753e-02 0. 0.
      0. 0. 4.20589209e-01 0. 0. 2.40336701e-01 0. 1.20168351e-01
      6.00841753e-02 3.00420880e-01 0. 6.00841753e-02 1.80252522e-01 0.
      6.00841753e-02 1.20168351e-01 0. 0. 0. 1.20168351e-01 0. 0. 0.
      1.20168351e-01 0.</_>
    <_>
      2.34484151e-01 5.86210378e-02 0. 3.51726204e-01 1.17242076e-01
      5.86210378e-02 0. 5.86210378e-02 5.86210378e-02 0. 1.17242076e-01
      0. 0. 0. 5.86210378e-02 1.75863102e-01 0. 1.17242076e-01 0.
      5.86210378e-02 1.75863102e-01 5.86210378e-02 1.17242076e-01
      5.86210378e-02 0. 0. 5.86210378e-02 1.75863102e-01 5.86210378e-02
      5.86210378e-02 5.86210378e-02 0. 0. 5.86210378e-02 5.86210378e-02
      2.34484151e-01 0. 1.75863102e-01 0. 0. 5.86210378e-02
      5.86210378e-02 0. 0. 5.86210378e-02 0. 0. 3.51726204e-01
      1.75863102e-01 5.86210378e-02 0. 0. 1.17242076e-01 5.86210378e-02
      2.93105185e-01 1.17242076e-01 0. 0. 0. 0. 0. 0. 5.86210378e-02 0.
      0. 5.86210378e-02 0. 0. 5.86210378e-02 0. 5.86210378e-02
      1.75863102e-01 0. 0. 0. 0. 1.75863102e-01 0. 2.34484151e-01
      1.75863102e-01 0. 0. 0. 0. 0. 0. 1.17242076e-01 0. 1.75863102e-01
      0. 0. 0. 5.86210378e-02 1.75863102e-01 5.86210378e-02
      5.86210378e-02 5.86210378e-02 0. 0. 5.86210378e-02</_>
    <_>
      0. 0. 0. 0. 0. 1.70251310e-01 8.51256549e-02 0. 0. 2.55376965e-01
      0. 1.70251310e-01 0. 0. 0. 1.70251310e-01 0. 0. 8.51256549e-02 0.
      0. 5.10753930e-01 8.51256549e-02 0. 0. 8.51256549e-02 0. 0. 0. 0.
      8.51256549e-02 0. 0. 0. 0. 0. 0. 8.51256549e-02 4.25628245e-01 0.
      0. 0. 0. 0. 0. 0. 0. 8.51256549e-02 1.70251310e-01 0.
      8.51256549e-02 0. 0. 0. 8.51256549e-02 0. 0. 8.51256549e-02 0. 0.
      0. 1.70251310e-01 0. 0. 0. 0. 0. 0. 0. 0. 0. 0. 0. 0. 0. 0. 0.
      3.40502620e-01 8.51256549e-02 0. 1.70251310e-01 0. 0. 0.
      8.51256549e-02 0. 0. 0. 8.51256549e-02 0. 0. 8.51256549e-02 0. 0.
      0. 0. 8.51256549e-02 1.70251310e-01 0. 2.55376965e-01</_>
    <_>
      4.48110737e-02 0. 0. 2.24055365e-01 4.48110737e-02 0.
      2.24055365e-01 0. 4.48110737e-02 8.96221474e-02 1.79244295e-01
      8.96221474e-02 0. 4.48110737e-02 8.96221474e-02 4.92921799e-01
      8.96221474e-02 4.48110737e-02 0. 4.48110737e-02 8.96221474e-02
      4.48110737e-02 0. 8.96221474e-02 0. 0. 4.48110737e-02
      4.48110737e-02 4.48110737e-02 1.34433225e-01 8.96221474e-02
      1.34433225e-01 1.34433225e-01 0. 0. 1.34433225e-01 0. 0. 0.
      3.13677520e-01 8.96221474e-02 0. 0. 8.96221474e-02 0.
      8.96221474e-02 8.96221474e-02 0. 8.96221474e-02 0. 8.96221474e-02
      0. 2.24055365e-01 4.48110737e-02 2.24055365e-01 0. 8.96221474e-02
      0. 0. 8.96221474e-02 4.48110737e-02 0. 0. 8.96221474e-02 0.
      4.48110737e-02 0. 4.48110737e-02 1.34433225e-01 0. 1.34433225e-01
      0. 4.48110737e-02 1.34433225e-01 8.96221474e-02 0. 4.48110737e-02
      8.96221474e-02 4.48110737e-02 0. 0. 0. 8.96221474e-02
      4.48110737e-02 4.48110737e-02 0. 0. 8.96221474e-02 8.96221474e-02
      8.96221474e-02 4.48110737e-02 4.48110737e-02 4.48110737e-02
      4.48110737e-02 0. 8.96221474e-02 0. 0. 1.34433225e-01
      2.24055365e-01</_>
    <_>
      0. 0. 0. 0. 0. 2.74075478e-01 0. 0. 2.74075478e-01 0. 0. 0. 0. 0.
      0. 6.85188696e-02 1.37037739e-01 0. 2.05556616e-01 6.85188696e-02
      1.37037739e-01 0. 0. 6.85188696e-02 0. 0. 0. 6.85188696e-02 0.
      6.85188696e-02 6.85188696e-02 3.42594355e-01 0. 6.85188696e-02
      6.85188696e-02 6.85188696e-02 6.85188696e-02 6.85188696e-02
      6.85188696e-02 1.37037739e-01 0. 0. 0. 2.05556616e-01 0. 0. 0.
      6.85188696e-02 1.37037739e-01 1.37037739e-01 0. 0. 2.05556616e-01
      0. 1.37037739e-01 0. 0. 6.85188696e-02 0. 6.85188696e-02 0. 0.
      6.85188696e-02 1.37037739e-01 0. 0. 6.85188696e-02 0. 0.
      6.85188696e-02 0. 0. 0. 0. 0. 0. 2.05556616e-01 1.37037739e-01 0.
      6.85188696e-02 0. 0. 0. 0. 1.37037739e-01 6.85188696e-02 0.
      6.85188696e-02 6.85188696e-02 1.37037739e-01 0. 0. 0.
      4.79632080e-01 1.37037739e-01 0. 0. 1.37037739e-01 0.
      6.85188696e-02</_>
    <_>
      0. 1.43591627e-01 7.17958137e-02 7.17958137e-02 0. 7.17958137e-02
      0. 0. 0. 7.17958137e-02 0. 7.17958137e-02 7.17958137e-02 0. 0. 0.
      0. 0. 0. 7.17958137e-02 7.17958137e-02 2.87183255e-01 0.
      7.17958137e-02 1.43591627e-01 0. 0. 0. 0. 0. 7.17958137e-02 0. 0.
      0. 3.58979076e-01 4.30774897e-01 0. 0. 1.43591627e-01
      7.17958137e-02 0. 0. 0. 0. 7.17958137e-02 1.43591627e-01
      7.17958137e-02 7.17958137e-02 2.15387449e-01 0. 7.17958137e-02 0.
      0. 0. 2.15387449e-01 0. 7.17958137e-02 0. 0. 0. 0. 0. 0. 0. 0.
      7.17958137e-02 0. 0. 0. 0. 0. 4.30774897e-01 7.17958137e-02 0.
      7.17958137e-02 7.17958137e-02 2.87183255e-01 0. 7.17958137e-02
      7.17958137e-02 7.17958137e-02 0. 0. 0. 0. 0. 0. 7.17958137e-02
      7.17958137e-02 7.17958137e-02 0. 0. 0. 0. 7.17958137e-02 0. 0. 0.
      1.43591627e-01 0.</_>
    <_>
      0. 9.96270925e-02 0. 0. 4.98135462e-02 0. 4.98135462e-02 0. 0. 0.
      0. 0. 0. 1.49440646e-01 0. 0. 0. 0. 0. 0. 0. 0. 0. 0. 0. 0.
      1.49440646e-01 0. 0. 0. 0. 3.48694831e-01 0. 0. 0. 0.
      4.98135462e-02 4.98135462e-02 0. 0. 2.49067739e-01 0. 0.
      2.49067739e-01 0. 0. 0. 0. 0. 0. 0. 0. 0. 0. 0. 0. 3.98508370e-01
      0. 0. 0. 0. 1.49440646e-01 0. 0. 0. 4.98135462e-02 0. 0. 0.
      5.97762585e-01 0. 0. 0. 0. 0. 0. 4.98135462e-02 0. 9.96270925e-02
      0. 0. 0. 0. 0. 0. 9.96270925e-02 0. 0. 1.99254185e-01
      2.49067739e-01 0. 0. 0. 0. 4.98135462e-02 9.96270925e-02
      9.96270925e-02 0. 4.98135462e-02 0.</_>
    <_>
      6.07456751e-02 0. 6.07456751e-02 0. 6.07456751e-02 6.07456751e-02
      6.07456751e-02 0. 1.21491350e-01 1.21491350e-01 0. 0. 0.
      6.07456751e-02 0. 0. 0. 0. 6.07456751e-02 6.07456751e-02
      6.07456751e-02 6.07456751e-02 1.21491350e-01 1.21491350e-01
      6.07456751e-02 1.82237029e-01 0. 6.07456751e-02 6.07456751e-02
      6.07456751e-02 4.25219744e-01 6.07456751e-02 0. 0. 6.07456751e-02
      0. 0. 6.07456751e-02 6.07456751e-02 1.82237029e-01 1.21491350e-01
      6.07456751e-02 6.07456751e-02 0. 2.42982700e-01 0. 0.
      6.07456751e-02 3.64474058e-01 1.21491350e-01 1.21491350e-01 0.
      6.07456751e-02 6.07456751e-02 6.07456751e-02 6.07456751e-02 0.
      6.07456751e-02 1.21491350e-01 6.07456751e-02 0. 0. 2.42982700e-01
      1.21491350e-01 6.07456751e-02 0. 6.07456751e-02 0. 1.82237029e-01
      6.07456751e-02 6.07456751e-02 1.21491350e-01 6.07456751e-02
      6.07456751e-02 0. 0. 6.07456751e-02 1.21491350e-01 0.
      6.07456751e-02 0. 0. 0. 0. 1.82237029e-01 0. 0. 1.82237029e-01 0.
      6.07456751e-02 6.07456751e-02 0. 1.21491350e-01 6.07456751e-02
      6.07456751e-02 0. 6.07456751e-02 1.21491350e-01 6.07456751e-02
      2.42982700e-01</_>
    <_>
      0. 0. 0. 0. 7.08881170e-02 0. 7.08881170e-02 0. 7.08881170e-02
      7.08881170e-02 0. 2.12664351e-01 0. 0. 0. 2.83552468e-01
      7.08881170e-02 1.41776234e-01 7.08881170e-02 7.08881170e-02 0.
      3.54440600e-01 0. 0. 0. 7.08881170e-02 0. 2.12664351e-01 0. 0.
      1.41776234e-01 0. 0. 1.41776234e-01 7.08881170e-02 0. 0. 0.
      3.54440600e-01 7.08881170e-02 0. 7.08881170e-02 0. 0. 0. 0. 0.
      4.25328702e-01 0. 7.08881170e-02 0. 0. 7.08881170e-02 0.
      1.41776234e-01 0. 0. 0. 1.41776234e-01 0. 0. 7.08881170e-02 0. 0.
      1.41776234e-01 0. 7.08881170e-02 0. 1.41776234e-01 0. 0. 0. 0. 0.
      0. 0. 1.41776234e-01 0. 0. 0. 7.08881170e-02 0. 7.08881170e-02 0.
      2.12664351e-01 1.41776234e-01 0. 0. 1.41776234e-01 0.
      7.08881170e-02 0. 0. 1.41776234e-01 7.08881170e-02 1.41776234e-01
      7.08881170e-02 0. 7.08881170e-02 7.08881170e-02</_>
    <_>
      5.65233417e-02 0. 2.26093367e-01 5.65233417e-02 1.13046683e-01 0.
      2.26093367e-01 5.65233417e-02 5.65233417e-02 0. 0. 0.
      5.65233417e-02 0. 0. 5.65233417e-02 0. 0. 0. 0. 5.65233417e-02
      5.65233417e-02 5.65233417e-02 0. 5.65233417e-02 5.65233417e-02
      1.13046683e-01 1.69570029e-01 0. 0. 1.13046683e-01 0.
      5.65233417e-02 5.65233417e-02 5.65233417e-02 0. 0. 0.
      1.13046683e-01 1.13046683e-01 0. 0. 0. 5.65233417e-02
      1.13046683e-01 0. 5.65233417e-02 1.13046683e-01 0. 1.69570029e-01
      0. 1.13046683e-01 5.65233417e-02 5.65233417e-02 3.95663381e-01
      5.65233417e-02 0. 2.82616705e-01 1.13046683e-01 5.65233417e-02 0.
      1.69570029e-01 0. 5.65233417e-02 5.65233417e-02 5.65233417e-02
      1.69570029e-01 0. 5.65233417e-02 5.65233417e-02 1.13046683e-01 0.
      0. 0. 0. 0. 1.13046683e-01 3.39140058e-01 1.13046683e-01
      5.65233417e-02 1.69570029e-01 5.65233417e-02 5.65233417e-02
      1.13046683e-01 1.13046683e-01 1.69570029e-01 5.65233417e-02
      1.13046683e-01 0. 0. 0. 5.65233417e-02 5.65233417e-02
      1.13046683e-01 0. 0. 5.65233417e-02 2.26093367e-01 1.13046683e-01
      5.65233417e-02</_>
    <_>
      4.16666679e-02 2.50000000e-01 4.16666679e-02 5.41666687e-01 0.
      4.16666679e-02 4.16666679e-02 4.16666679e-02 0. 0. 0.
      4.16666679e-02 0. 4.16666679e-02 1.25000000e-01 4.16666679e-02 0.
      4.16666679e-02 0. 0. 8.33333358e-02 4.16666679e-02 8.33333358e-02
      2.08333328e-01 4.16666679e-02 8.33333358e-02 0. 8.33333358e-02
      4.16666679e-02 0. 0. 0. 0. 8.33333358e-02 2.50000000e-01
      4.16666679e-02 1.25000000e-01 0. 2.91666687e-01 8.33333358e-02
      4.16666679e-02 0. 0. 8.33333358e-02 4.16666679e-02 0.
      4.16666679e-02 4.16666679e-02 0. 8.33333358e-02 4.16666679e-02
      4.16666679e-02 0. 8.33333358e-02 4.16666679e-02 8.33333358e-02 0.
      4.16666679e-02 0. 4.16666679e-02 4.16666679e-02 4.16666679e-02 0.
      1.66666672e-01 0. 8.33333358e-02 0. 0. 0. 0. 0. 4.16666679e-02
      8.33333358e-02 0. 0. 0. 0. 4.16666679e-02 1.66666672e-01
      1.66666672e-01 8.33333358e-02 0. 8.33333358e-02 2.91666687e-01
      1.25000000e-01 0. 8.33333358e-02 2.08333328e-01 4.16666679e-02 0.
      0. 4.16666679e-02 0. 1.66666672e-01 0. 4.16666679e-02
      4.16666679e-02 4.16666679e-02 8.33333358e-02 4.16666679e-02</_>
    <_>
      2.51656957e-02 0. 2.51656957e-02 2.51656957e-02 0. 0.
      5.03313914e-02 0. 1.00662783e-01 0. 0. 0. 0. 0. 0. 1.25828475e-01
      0. 2.51656957e-02 0. 2.51656957e-02 2.51656957e-02 2.51656957e-02
      2.51656957e-02 0. 1.00662783e-01 2.51656957e-02 2.51656957e-02
      7.54970834e-02 0. 5.03313914e-02 2.51656957e-02 0. 0. 0.
      2.51656957e-02 5.03313899e-01 2.51656957e-02 2.51656957e-02
      5.78810990e-01 0. 0. 0. 2.51656957e-02 0. 0. 0. 2.51656957e-02
      1.25828475e-01 0. 5.03313914e-02 0. 2.51656957e-02 5.03313914e-02
      2.51656957e-02 3.27154070e-01 0. 5.03313914e-02 0. 0. 0.
      5.03313914e-02 2.51656957e-02 2.51656957e-02 2.51656957e-02
      5.03313914e-02 5.03313914e-02 5.03313914e-02 2.51656957e-02 0. 0.
      0. 2.51656957e-02 2.51656957e-02 0. 5.03313914e-02 2.51656957e-02
      2.51656957e-02 1.25828475e-01 0. 2.51656957e-02 2.51656957e-02
      2.51656957e-02 2.01325566e-01 7.54970834e-02 2.51656950e-01
      5.03313914e-02 0. 1.00662783e-01 0. 7.54970834e-02 7.54970834e-02
      2.51656957e-02 0. 1.25828475e-01 0. 0. 2.51656957e-02
      1.76159874e-01 7.54970834e-02 0.</_>
    <_>
      8.80450904e-02 0. 4.40225452e-02 0. 1.76090181e-01 0. 0. 0.
      1.76090181e-01 0. 4.40225452e-02 4.40225452e-02 0. 0. 0.
      3.08157831e-01 4.40225452e-02 8.80450904e-02 8.80450904e-02
      4.40225452e-02 0. 4.40225452e-02 0. 0. 0. 0. 0. 1.76090181e-01
      4.40225452e-02 0. 0. 0. 0. 0. 0. 1.76090181e-01 8.80450904e-02 0.
      2.64135271e-01 1.76090181e-01 1.32067636e-01 0. 0. 8.80450904e-02
      0. 0. 0. 4.40225452e-02 2.20112741e-01 4.40225452e-02
      8.80450904e-02 0. 0. 4.40225452e-02 3.96202922e-01 0. 0. 0.
      4.40225452e-02 8.80450904e-02 8.80450904e-02 0. 8.80450904e-02 0.
      2.64135271e-01 4.40225452e-02 4.40225452e-02 0. 1.76090181e-01
      4.40225452e-02 0. 0. 0. 0. 4.40225452e-02 4.40225452e-02
      2.20112741e-01 1.32067636e-01 0. 4.40225452e-02 8.80450904e-02
      4.40225452e-02 0. 4.40225452e-02 1.32067636e-01 1.32067636e-01
      4.40225452e-02 8.80450904e-02 4.40225452e-02 4.40225452e-02
      8.80450904e-02 8.80450904e-02 0. 2.64135271e-01 8.80450904e-02 0.
      4.40225452e-02 1.76090181e-01 4.40225452e-02 0.</_>
    <_>
      1.89405486e-01 4.73513715e-02 4.73513715e-02 9.47027430e-02
      4.73513715e-02 4.73513715e-02 0. 0. 4.73513715e-02 0. 0.
      9.47027430e-02 0. 0. 2.36756846e-01 0. 1.42054111e-01
      4.73513715e-02 4.73513715e-02 0. 4.26162332e-01 0. 3.31459612e-01
      4.73513715e-02 9.47027430e-02 0. 0. 9.47027430e-02 0. 0.
      9.47027430e-02 0. 0. 0. 9.47027430e-02 0. 0. 0. 0. 9.47027430e-02
      0. 9.47027430e-02 0. 0. 0. 0. 0. 1.42054111e-01 4.73513715e-02
      1.89405486e-01 9.47027430e-02 0. 9.47027430e-02 0. 3.78810972e-01
      0. 0. 1.89405486e-01 0. 9.47027430e-02 4.73513715e-02 0. 0.
      9.47027430e-02 4.73513715e-02 2.36756846e-01 0. 9.47027430e-02 0.
      0. 9.47027430e-02 0. 1.42054111e-01 4.73513715e-02 0.
      9.47027430e-02 9.47027430e-02 0. 1.42054111e-01 0. 0. 0.
      1.42054111e-01 0. 9.47027430e-02 0. 0. 9.47027430e-02 0. 0.
      1.42054111e-01 0. 0. 9.47027430e-02 0. 0. 4.73513715e-02
      1.42054111e-01 4.73513715e-02 4.73513715e-02</_>
    <_>
      3.77964489e-02 7.55928978e-02 7.55928978e-02 3.77964489e-02 0.
      3.77964489e-02 1.13389343e-01 7.55928978e-02 1.13389343e-01 0.
      3.77964489e-02 3.77964489e-02 3.77964489e-02 3.77964489e-02
      4.15760934e-01 0. 0. 5.66946685e-01 0. 0. 3.77964489e-02
      1.13389343e-01 7.55928978e-02 3.77964489e-02 1.51185796e-01
      3.77964489e-02 3.77964489e-02 7.55928978e-02 0. 7.55928978e-02 0.
      0. 3.77964489e-02 0. 7.55928978e-02 3.77964497e-01 0.
      7.55928978e-02 7.55928978e-02 3.77964489e-02 3.77964489e-02 0. 0.
      3.77964489e-02 3.77964489e-02 0. 0. 0. 3.77964489e-02
      1.88982248e-01 1.88982248e-01 0. 0. 7.55928978e-02 1.13389343e-01
      7.55928978e-02 0. 7.55928978e-02 1.13389343e-01 3.77964489e-02 0.
      1.13389343e-01 3.77964489e-02 7.55928978e-02 1.13389343e-01 0.
      1.13389343e-01 0. 3.77964489e-02 0. 0. 3.77964489e-02
      7.55928978e-02 0. 0. 0. 3.77964489e-02 1.13389343e-01
      7.55928978e-02 3.77964489e-02 3.77964489e-02 7.55928978e-02 0. 0.
      0. 7.55928978e-02 0. 3.77964489e-02 0. 0. 3.77964489e-02 0. 0.
      1.13389343e-01 0. 3.77964489e-02 0. 3.77964489e-02 3.77964489e-02
      3.77964489e-02</_>
    <_>
      0. 1.38379678e-01 4.61265594e-02 1.38379678e-01 4.61265594e-02 0.
      9.22531188e-02 9.22531188e-02 4.61265594e-02 0. 0. 0. 0. 0. 0.
      1.84506238e-01 0. 4.61265594e-02 4.61265594e-02 4.61265594e-02 0.
      0. 0. 1.38379678e-01 0. 0. 2.30632797e-01 0. 1.38379678e-01 0. 0.
      1.84506238e-01 4.61265594e-02 4.61265594e-02 0. 1.38379678e-01
      9.22531188e-02 1.38379678e-01 0. 9.22531188e-02 4.61265594e-02 0.
      4.61265594e-02 2.76759356e-01 0. 9.22531188e-02 9.22531188e-02
      4.61265594e-02 9.22531188e-02 4.61265594e-02 4.61265594e-02 0. 0.
      9.22531188e-02 1.38379678e-01 0. 0. 0. 0. 9.22531188e-02
      9.22531188e-02 4.61265594e-02 0. 4.61265594e-02 0. 2.30632797e-01
      1.38379678e-01 4.61265594e-02 9.22531188e-02 9.22531188e-02
      9.22531188e-02 1.38379678e-01 4.61265594e-02 0. 0. 1.38379678e-01
      4.61265594e-01 9.22531188e-02 1.84506238e-01 0. 9.22531188e-02
      9.22531188e-02 0. 1.38379678e-01 4.61265594e-02 0. 0. 0.
      9.22531188e-02 0. 0. 0. 0. 2.76759356e-01 1.38379678e-01 0.
      4.61265594e-02 0. 9.22531188e-02 4.61265594e-02</_>
    <_>
      1.35070413e-01 1.35070413e-01 3.37676033e-02 1.01302803e-01
      3.37676033e-02 0. 3.37676033e-02 6.75352067e-02 1.01302803e-01
      6.75352067e-02 3.37676033e-02 3.37676033e-02 6.75352067e-02 0.
      3.37676033e-02 1.68838009e-01 3.37676033e-02 2.36373201e-01
      1.68838009e-01 6.75352067e-02 0. 6.75352067e-02 0. 1.68838009e-01
      1.01302803e-01 1.01302803e-01 3.37676033e-02 6.75352067e-02
      3.37676018e-01 0. 0. 3.37676033e-02 0. 3.37676033e-02 0.
      3.71443629e-01 3.37676033e-02 0. 3.37676033e-02 6.75352067e-02
      6.75352067e-02 0. 1.01302803e-01 1.35070413e-01 3.37676033e-02 0.
      6.75352067e-02 3.37676033e-02 0. 0. 3.37676033e-02 3.37676033e-02
      6.75352067e-02 3.37676033e-02 6.75352067e-02 3.37676033e-02 0.
      3.37676033e-02 0. 1.68838009e-01 3.37676033e-02 3.37676033e-02
      2.36373201e-01 3.37676033e-02 3.37676033e-02 3.37676033e-02
      3.37676033e-02 3.37676033e-02 3.37676033e-02 3.37676033e-02
      3.37676033e-02 3.37676033e-02 0. 3.37676033e-02 6.75352067e-02 0.
      2.02605605e-01 1.35070413e-01 2.36373201e-01 0. 1.01302803e-01
      3.37676033e-02 1.01302803e-01 6.75352067e-02 1.68838009e-01
      6.75352067e-02 3.37676033e-02 3.37676033e-02 0. 0. 1.35070413e-01
      1.35070413e-01 0. 2.36373201e-01 2.02605605e-01 3.37676033e-02 0.
      0. 1.01302803e-01 6.75352067e-02</_>
    <_>
      4.77818474e-02 4.77818474e-02 1.91127390e-01 1.43345535e-01 0. 0.
      4.77818474e-02 0. 4.77818474e-02 9.55636948e-02 4.77818474e-02
      4.77818474e-02 0. 0. 0. 2.38909230e-01 0. 0. 4.77818474e-02
      4.77818474e-02 0. 4.77818474e-02 9.55636948e-02 1.91127390e-01 0.
      4.77818474e-02 9.55636948e-02 0. 0. 2.86691070e-01 0.
      9.55636948e-02 0. 2.86691070e-01 2.86691070e-01 1.43345535e-01 0.
      4.77818474e-02 4.77818474e-02 4.77818474e-02 1.91127390e-01
      4.77818474e-02 2.86691070e-01 4.77818474e-02 4.77818474e-02
      4.77818474e-02 4.77818474e-02 0. 9.55636948e-02 0. 0.
      4.77818474e-02 9.55636948e-02 1.43345535e-01 0. 0. 0. 0.
      1.43345535e-01 0. 0. 4.77818474e-02 4.77818474e-02 0. 0. 0.
      4.77818474e-02 4.77818474e-02 9.55636948e-02 0. 4.77818474e-02
      2.38909230e-01 9.55636948e-02 0. 0. 0. 1.91127390e-01 0.
      4.77818474e-02 9.55636948e-02 0. 0. 9.55636948e-02 3.34472924e-01
      0. 4.77818474e-02 0. 4.77818474e-02 2.38909230e-01 0. 0. 0. 0. 0.
      4.77818474e-02 0. 4.77818474e-02 0. 0. 4.77818474e-02</_>
    <_>
      0. 3.94668505e-02 0. 0. 1.18400551e-01 3.94668505e-02
      1.57867402e-01 3.94668505e-02 7.89337009e-02 0. 0. 3.94668505e-02
      0. 0. 7.89337009e-02 2.36801103e-01 0. 2.36801103e-01
      1.97334260e-01 7.89337009e-02 0. 0. 7.89337009e-02 1.57867402e-01
      0. 3.94668505e-02 0. 3.94668505e-02 3.94668505e-02 0.
      3.94668505e-02 0. 0. 7.89337009e-02 7.89337009e-02 1.18400551e-01
      0. 1.97334260e-01 1.57867402e-01 3.94668505e-02 7.89337009e-02 0.
      0. 0. 0. 0. 0. 3.94668505e-02 0. 0. 0. 7.89337009e-02 0.
      3.94668505e-02 1.57867402e-01 7.89337009e-02 0. 3.94668505e-02
      3.94668505e-02 0. 1.18400551e-01 7.89337009e-02 3.94668505e-02 0.
      5.13069093e-01 0. 0. 0. 3.94668505e-02 0. 7.89337009e-02
      1.57867402e-01 3.94668505e-02 0. 0. 7.89337009e-02 3.94668505e-02
      1.97334260e-01 7.89337009e-02 1.97334260e-01 3.15734804e-01 0. 0.
      1.57867402e-01 3.94668505e-02 7.89337009e-02 0. 0. 0.
      3.94668505e-02 0. 7.89337009e-02 0. 1.57867402e-01 0.
      3.94668505e-02 1.18400551e-01 1.18400551e-01 0. 0.</_>
    <_>
      4.89702076e-02 4.89702076e-02 1.46910623e-01 0. 4.89702076e-02
      4.89702076e-02 1.46910623e-01 0. 1.46910623e-01 0. 0.
      1.95880830e-01 0. 9.79404151e-02 0. 1.46910623e-01 0. 0.
      1.95880830e-01 4.89702076e-02 0. 0. 4.89702076e-02 0.
      9.79404151e-02 9.79404151e-02 0. 4.89702076e-02 0. 9.79404151e-02
      9.79404151e-02 4.89702076e-02 0. 0. 0. 0. 0. 0. 5.38672328e-01
      9.79404151e-02 0. 9.79404151e-02 9.79404151e-02 9.79404151e-02
      1.46910623e-01 0. 0. 4.89702076e-02 0. 0. 1.46910623e-01 0.
      1.46910623e-01 4.89702076e-02 4.89702076e-02 4.89702076e-02 0. 0.
      0. 4.89702076e-02 9.79404151e-02 0. 4.89702076e-02 0.
      1.46910623e-01 0. 0. 4.89702076e-02 4.89702076e-02 1.46910623e-01
      1.46910623e-01 0. 4.89702076e-02 4.89702076e-02 9.79404151e-02 0.
      4.89702076e-02 4.89702076e-02 0. 0. 4.89702076e-02 4.89702076e-02
      9.79404151e-02 4.89702076e-02 9.79404151e-02 9.79404151e-02
      1.95880830e-01 0. 0. 0. 9.79404151e-02 2.44851038e-01 0.
      2.93821245e-01 0. 0. 0. 9.79404151e-02 4.89702076e-02
      1.46910623e-01</_>
    <_>
      1.21716127e-01 0. 1.21716127e-01 6.08580634e-02 0. 0. 0. 0.
      1.82574183e-01 0. 0. 0. 1.82574183e-01 1.21716127e-01 0. 0.
      1.21716127e-01 1.21716127e-01 0. 6.08580634e-02 6.08580634e-02
      1.21716127e-01 6.08580634e-02 0. 1.21716127e-01 2.43432254e-01 0.
      1.21716127e-01 0. 0. 5.47722578e-01 0. 1.21716127e-01 0.
      2.43432254e-01 6.08580634e-02 0. 0. 1.21716127e-01 0.
      6.08580634e-02 0. 0. 0. 0. 6.08580634e-02 1.21716127e-01 0. 0.
      6.08580634e-02 0. 6.08580634e-02 0. 6.08580634e-02 6.08580634e-02
      0. 0. 6.08580634e-02 0. 6.08580634e-02 0. 1.21716127e-01
      1.21716127e-01 0. 6.08580634e-02 2.43432254e-01 1.82574183e-01
      6.08580634e-02 1.21716127e-01 6.08580634e-02 0. 0. 6.08580634e-02
      0. 6.08580634e-02 0. 6.08580634e-02 2.43432254e-01 6.08580634e-02
      0. 0. 0. 1.21716127e-01 0. 6.08580634e-02 6.08580634e-02 0.
      6.08580634e-02 0. 0. 1.21716127e-01 1.21716127e-01 0.
      6.08580634e-02 6.08580634e-02 0. 0. 6.08580634e-02 1.21716127e-01
      0.</_>
    <_>
      0. 0. 0. 0. 5.40738069e-02 0. 0. 0. 5.40738069e-02 0. 0. 0. 0. 0.
      5.40738069e-02 0. 5.40738069e-02 0. 0. 5.40738069e-02
      5.40738069e-02 0. 0. 0. 0. 0. 0. 5.40738069e-02 0. 0. 0. 0. 0. 0.
      0. 5.40738069e-02 0. 0. 4.86664265e-01 1.08147614e-01 0. 0. 0. 0.
      5.40738069e-02 5.40738069e-02 0. 0. 5.40738069e-02 1.62221432e-01
      0. 0. 0. 0. 0. 1.62221432e-01 0. 0. 0. 5.40738069e-02
      5.40738069e-02 5.94811857e-01 0. 0. 0. 0. 1.08147614e-01 0. 0. 0.
      0. 0. 1.08147614e-01 0. 0. 0. 1.62221432e-01 3.78516644e-01
      5.40738069e-02 0. 5.40738069e-02 0. 2.16295227e-01 5.40738069e-02
      1.08147614e-01 5.40738069e-02 0. 0. 5.40738069e-02 0. 0. 0. 0. 0.
      0. 1.62221432e-01 0. 5.40738069e-02 1.08147614e-01 0.</_>
    <_>
      0. 8.50486457e-02 4.25243229e-02 2.97670275e-01 8.50486457e-02
      4.25243229e-02 2.97670275e-01 4.25243229e-02 4.25243229e-02 0. 0.
      4.25243229e-02 4.25243229e-02 1.70097291e-01 4.25243229e-02
      1.70097291e-01 4.25243229e-02 0. 0. 0. 8.50486457e-02 0. 0.
      1.27572969e-01 1.70097291e-01 8.50486457e-02 1.70097291e-01
      4.25243229e-02 2.97670275e-01 1.27572969e-01 0. 0. 4.25243229e-02
      2.97670275e-01 8.50486457e-02 0. 0. 0. 1.27572969e-01 0. 0. 0.
      8.50486457e-02 0. 0. 0. 0. 4.25243229e-02 8.50486457e-02 0.
      4.25243229e-02 4.25243229e-02 0. 1.27572969e-01 1.27572969e-01
      8.50486457e-02 4.25243229e-02 0. 4.25243229e-02 8.50486457e-02
      4.25243229e-02 0. 0. 0. 2.55145937e-01 4.25243229e-02
      4.25243229e-02 0. 0. 4.25243229e-02 0. 8.50486457e-02 0. 0.
      1.70097291e-01 4.25243229e-02 1.27572969e-01 2.12621629e-01
      8.50486457e-02 4.25243229e-02 0. 0. 0. 2.12621629e-01
      1.70097291e-01 4.25243229e-02 0. 0. 4.25243229e-02 8.50486457e-02
      0. 0. 0. 2.55145937e-01 0. 0. 4.25243229e-02 1.27572969e-01 0.
      8.50486457e-02</_>
    <_>
      0. 7.07106814e-02 0. 7.07106814e-02 7.07106814e-02 0.
      7.07106814e-02 0. 0. 0. 0. 0. 0. 0. 7.07106814e-02 2.12132037e-01
      0. 3.53553414e-01 7.07106814e-02 7.07106814e-02 0. 0. 0. 0.
      1.41421363e-01 7.07106814e-02 2.82842726e-01 0. 7.07106814e-02 0.
      0. 0. 0. 7.07106814e-02 0. 0. 0. 0. 0. 7.07106814e-02
      2.12132037e-01 0. 0. 7.07106814e-02 7.07106814e-02 0. 0. 0. 0. 0.
      0. 7.07106814e-02 0. 0. 0. 0. 0. 0. 0. 7.07106814e-02
      2.12132037e-01 3.53553414e-01 7.07106814e-02 0. 7.07106814e-02 0.
      1.41421363e-01 0. 0. 1.41421363e-01 0. 0. 1.41421363e-01 0.
      1.41421363e-01 2.12132037e-01 7.07106814e-02 7.07106814e-02 0. 0.
      0. 0. 0. 0. 0. 0. 1.41421363e-01 0. 0. 4.24264073e-01 0.
      7.07106814e-02 0. 7.07106814e-02 0. 1.41421363e-01 1.41421363e-01
      0. 2.12132037e-01 0.</_>
    <_>
      3.70370373e-02 3.70370373e-02 0. 3.70370373e-02 4.44444448e-01 0.
      1.48148149e-01 0. 0. 3.70370373e-02 0. 0. 0. 0. 3.70370373e-02
      1.48148149e-01 0. 0. 3.70370373e-02 0. 3.70370373e-02
      7.40740746e-02 0. 3.70370373e-02 0. 3.70370373e-02 3.70370373e-02
      0. 7.40740746e-02 3.70370373e-02 0. 0. 7.40740746e-02
      7.40740746e-02 3.70370373e-02 7.40740746e-02 1.48148149e-01 0.
      3.70370373e-02 1.11111112e-01 3.70370373e-02 0. 0. 1.11111112e-01
      0. 0. 3.70370373e-02 3.70370373e-02 0. 7.40740746e-02 0.
      3.70370373e-02 0. 7.40740746e-02 1.85185179e-01 0. 0. 0.
      7.40740746e-02 7.40740746e-02 7.40740746e-02 7.40740746e-02
      1.11111112e-01 0. 1.11111112e-01 0. 0. 0. 2.59259254e-01
      1.11111112e-01 0. 3.70370373e-02 3.70370373e-02 3.70370373e-02
      7.40740746e-02 1.48148149e-01 1.11111112e-01 7.40740746e-02 0. 0.
      7.40740746e-02 1.11111112e-01 0. 3.70370373e-02 1.48148149e-01
      1.48148149e-01 3.70370373e-02 0. 0. 1.11111112e-01 3.70370373e-02
      3.70370373e-02 0. 5.92592597e-01 0. 3.70370373e-02 3.70370373e-02
      3.70370373e-02 7.40740746e-02 0.</_>
    <_>
      1.15087070e-01 1.72630608e-01 0. 2.30174139e-01 1.15087070e-01
      5.75435348e-02 0. 0. 5.75435348e-02 5.75435348e-02 1.15087070e-01
      5.75435348e-02 5.75435348e-02 0. 0. 0. 0. 0. 5.75435348e-02 0. 0.
      0. 0. 1.72630608e-01 0. 1.15087070e-01 1.15087070e-01
      5.75435348e-02 5.75435348e-02 1.72630608e-01 5.75435348e-02 0. 0.
      4.02804762e-01 0. 1.15087070e-01 0. 1.15087070e-01 0. 0.
      1.72630608e-01 0. 0. 5.75435348e-02 5.75435348e-02 0. 0.
      5.75435348e-02 0. 0. 5.75435348e-02 0. 1.15087070e-01 0.
      1.15087070e-01 0. 5.75435348e-02 5.75435348e-02 1.15087070e-01
      5.75435348e-02 0. 0. 0. 5.75435348e-02 0. 0. 5.75435348e-02
      5.75435348e-02 5.75435348e-02 5.75435348e-02 0. 5.75435348e-02
      1.15087070e-01 0. 0. 5.75435348e-02 5.75435340e-01 0.
      5.75435348e-02 1.15087070e-01 0. 0. 0. 5.75435348e-02 0. 0.
      1.15087070e-01 0. 5.75435348e-02 2.30174139e-01 5.75435348e-02 0.
      0. 5.75435348e-02 0. 0. 0. 0. 1.15087070e-01 5.75435348e-02</_>
    <_>
      0. 9.80057344e-02 6.53371513e-02 1.63342878e-01 6.53371513e-02
      1.30674303e-01 6.53371513e-02 1.63342878e-01 9.80057344e-02 0. 0.
      0. 0. 0. 3.26685756e-02 1.63342878e-01 0. 3.26685756e-02
      3.26685756e-02 6.53371513e-02 3.26685756e-02 1.30674303e-01 0.
      3.26685756e-02 0. 6.53371513e-02 9.80057344e-02 1.30674303e-01
      1.30674303e-01 0. 9.80057344e-02 0. 0. 1.30674303e-01
      6.53371513e-02 3.26685756e-02 0. 3.26685756e-02 6.53371513e-02 0.
      0. 0. 3.26685756e-02 0. 0. 0. 0. 2.28680044e-01 6.53371513e-02
      6.53371513e-02 0. 0. 3.26685756e-02 6.53371513e-02 4.24691468e-01
      9.80057344e-02 3.26685756e-02 3.26685756e-02 2.61348605e-01
      3.26685756e-02 9.80057344e-02 0. 0. 6.53371513e-02 0.
      6.53371513e-02 0. 1.30674303e-01 3.26685756e-02 3.26685756e-02 0.
      0. 2.61348605e-01 0. 6.53371513e-02 6.53371513e-02 6.53371513e-02
      1.63342878e-01 0. 9.80057344e-02 1.30674303e-01 0. 0. 0.
      3.59354347e-01 1.96011469e-01 3.26685756e-02 9.80057344e-02 0.
      3.26685756e-02 9.80057344e-02 9.80057344e-02 0. 1.96011469e-01 0.
      0. 9.80057344e-02 3.26685756e-02 3.26685756e-02 9.80057344e-02</_>
    <_>
      1.72345489e-01 0. 1.14896998e-01 0. 0. 5.74484989e-02 0. 0.
      1.72345489e-01 0. 5.74484989e-02 1.72345489e-01 5.74484989e-02 0.
      0. 0. 1.72345489e-01 0. 0. 1.72345489e-01 5.74484989e-02
      5.74484989e-02 0. 5.74484989e-02 0. 0. 0. 5.74484989e-02 0. 0.
      1.72345489e-01 0. 1.14896998e-01 0. 1.14896998e-01 0. 0.
      1.14896998e-01 2.87242502e-01 1.72345489e-01 1.72345489e-01 0. 0.
      1.14896998e-01 1.14896998e-01 1.14896998e-01 0. 5.74484989e-02 0.
      5.74484989e-02 5.74484989e-02 5.74484989e-02 0. 5.74484989e-02
      2.29793996e-01 0. 0. 5.74484989e-02 0. 0. 2.29793996e-01
      2.87242502e-01 1.14896998e-01 1.14896998e-01 5.74484989e-02
      2.29793996e-01 0. 0. 1.14896998e-01 0. 5.74484989e-02 0. 0. 0.
      5.74484989e-02 0. 5.74484989e-02 1.14896998e-01 5.74484989e-02
      1.14896998e-01 1.14896998e-01 0. 4.02139485e-01 0. 5.74484989e-02
      0. 0. 0. 0. 0. 0. 0. 0. 1.72345489e-01 0. 0. 0. 1.14896998e-01 0.
      0.</_>
    <_>
      0. 2.29415730e-01 0. 0. 0. 0. 7.64719099e-02 0. 0. 0. 0.
      7.64719099e-02 0. 7.64719099e-02 0. 3.82359535e-01 0. 0. 0.
      7.64719099e-02 7.64719099e-02 0. 0. 0. 0. 0. 0. 7.64719099e-02
      2.29415730e-01 1.52943820e-01 0. 0. 0. 3.05887640e-01 0. 0.
      7.64719099e-02 1.52943820e-01 0. 0. 0. 0. 0. 0. 0. 0. 0.
      7.64719099e-02 0. 0. 0. 1.52943820e-01 7.64719099e-02 0.
      1.52943820e-01 7.64719099e-02 0. 0. 0. 7.64719099e-02 0. 0.
      7.64719099e-02 0. 7.64719099e-02 0. 7.64719099e-02 2.29415730e-01
      0. 2.29415730e-01 0. 0. 7.64719099e-02 0. 7.64719099e-02
      7.64719099e-02 1.52943820e-01 0. 3.05887640e-01 7.64719099e-02
      7.64719099e-02 7.64719099e-02 0. 7.64719099e-02 0. 7.64719099e-02
      0. 7.64719099e-02 3.05887640e-01 7.64719099e-02 0. 0. 0. 0.
      7.64719099e-02 7.64719099e-02 3.05887640e-01 0. 0. 0.</_>
    <_>
      0. 4.50377315e-02 0. 0. 9.00754631e-02 0. 2.70226419e-01
      4.50377315e-02 1.35113209e-01 0. 0. 4.50377315e-02 0. 0. 0.
      2.70226419e-01 4.50377315e-02 0. 0. 9.00754631e-02 9.00754631e-02
      1.35113209e-01 0. 0. 4.50377315e-02 4.50377315e-02 0.
      4.50377315e-02 0. 1.35113209e-01 9.00754631e-02 4.50377315e-02 0.
      0. 4.50377315e-02 2.25188658e-01 0. 0. 4.50377315e-01 0.
      9.00754631e-02 4.50377315e-02 0. 0. 1.35113209e-01 0. 0.
      4.50377315e-02 0. 0. 1.35113209e-01 0. 4.50377315e-02 0.
      1.35113209e-01 0. 2.25188658e-01 0. 0. 0. 9.00754631e-02 0. 0.
      4.50377315e-02 0. 0. 0. 4.50377315e-02 0. 4.50377315e-02
      1.35113209e-01 0. 0. 0. 4.50377315e-02 0. 9.00754631e-02
      3.60301852e-01 0. 9.00754631e-02 1.35113209e-01 0. 9.00754631e-02
      0. 2.70226419e-01 0. 0. 0. 4.50377315e-02 0. 0. 0. 9.00754631e-02
      1.80150926e-01 0. 0. 4.50377315e-02 1.80150926e-01 1.35113209e-01
      0.</_>
    <_>
      5.74484989e-02 2.87242495e-02 2.87242495e-02 8.61727446e-02
      2.87242495e-02 1.14896998e-01 2.87242495e-02 0. 1.43621251e-01
      2.87242495e-02 5.74484989e-02 0. 0. 0. 2.87242495e-02
      4.02139485e-01 1.14896998e-01 2.01069742e-01 0. 5.74484989e-02
      2.87242495e-02 5.74484989e-02 2.87242495e-02 1.43621251e-01
      2.87242495e-02 5.74484989e-02 2.87242495e-02 2.87242495e-02
      5.74484989e-02 0. 8.61727446e-02 5.74484989e-02 1.43621251e-01
      8.61727446e-02 0. 2.87242495e-02 5.74484989e-02 2.87242495e-02 0.
      1.43621251e-01 2.87242495e-02 5.74484989e-02 8.61727446e-02
      1.43621251e-01 0. 0. 0. 8.61727446e-02 8.61727446e-02
      2.87242495e-02 5.74484989e-02 0. 5.74484989e-02 2.87242495e-02
      1.14896998e-01 2.87242495e-02 2.87242495e-02 0. 1.72345489e-01
      2.29793996e-01 1.43621251e-01 2.87242495e-02 0. 8.61727446e-02
      2.01069742e-01 1.43621251e-01 1.14896998e-01 2.87242495e-02
      1.72345489e-01 1.14896998e-01 5.74484989e-02 2.87242495e-02
      5.74484989e-02 5.74484989e-02 0. 5.74484989e-02 5.74484989e-02
      2.87242495e-02 2.87242495e-02 2.87242495e-02 8.61727446e-02
      1.14896998e-01 0. 0. 8.61727446e-02 2.87242502e-01 5.74484989e-02
      2.87242495e-02 1.14896998e-01 1.72345489e-01 1.14896998e-01
      5.74484989e-02 0. 2.01069742e-01 1.72345489e-01 1.43621251e-01
      1.43621251e-01 5.74484989e-02 1.43621251e-01 2.87242495e-02</_>
    <_>
      0. 4.06557806e-02 4.06557806e-02 4.06557806e-02 4.06557806e-02 0.
      2.43934706e-01 0. 1.62623122e-01 0. 0. 0. 0. 0. 4.06557806e-02
      1.62623122e-01 0. 0. 0. 4.06557806e-02 0. 0. 4.06557806e-02 0.
      4.06557806e-02 0. 0. 4.06557806e-02 0. 0. 0. 0. 0. 4.06557806e-02
      0. 2.03278899e-01 0. 4.06557806e-02 2.43934706e-01 0. 0. 0. 0. 0.
      0. 4.06557806e-02 4.06557806e-02 0. 0. 0. 0. 4.06557806e-02 0.
      8.13115612e-02 4.06557806e-02 0. 0. 0. 4.06557806e-02
      4.06557806e-02 1.21967353e-01 4.06557806e-02 0. 8.13115612e-02
      4.06557806e-02 8.13115612e-02 4.06557806e-02 4.06557806e-02
      4.06557806e-02 0. 0. 0. 0. 4.06557806e-02 1.62623122e-01
      2.03278899e-01 8.13115612e-02 3.65902036e-01 1.21967353e-01
      4.06557806e-02 2.43934706e-01 0. 0. 2.84590483e-01 5.28525174e-01
      0. 0. 0. 0. 0. 0. 4.06557806e-02 0. 2.43934706e-01 0. 0.
      4.06557806e-02 0. 8.13115612e-02 0.</_>
    <_>
      0. 1.79028720e-01 3.58057432e-02 1.07417226e-01 3.58057432e-02
      1.79028720e-01 7.16114864e-02 1.43222973e-01 1.07417226e-01 0.
      3.58057432e-02 1.43222973e-01 0. 0. 0. 3.58057432e-02 0.
      3.58057432e-02 3.58057432e-02 3.58057432e-02 0. 1.79028720e-01 0.
      2.14834452e-01 7.16114864e-02 3.58057432e-02 0. 3.58057432e-02
      1.43222973e-01 1.07417226e-01 7.16114864e-02 0. 0. 3.58057432e-02
      1.79028720e-01 1.07417226e-01 0. 0. 3.58057439e-01 0.
      3.58057432e-02 0. 3.58057432e-02 1.79028720e-01 0. 7.16114864e-02
      3.58057432e-02 0. 3.58057432e-02 0. 0. 0. 0. 1.43222973e-01
      7.16114864e-02 3.58057432e-02 3.58057432e-02 0. 3.58057432e-02 0.
      7.16114864e-02 3.58057432e-02 0. 0. 3.58057432e-02 3.58057432e-02
      3.58057432e-02 0. 7.16114864e-02 0. 0. 1.43222973e-01
      1.07417226e-01 0. 0. 3.58057432e-02 1.07417226e-01 1.79028720e-01
      2.50640213e-01 2.50640213e-01 0. 3.58057432e-02 1.43222973e-01
      1.43222973e-01 2.50640213e-01 1.07417226e-01 0. 7.16114864e-02
      3.58057432e-02 3.58057432e-02 0. 0. 0. 0. 3.58057439e-01 0.
      1.07417226e-01 7.16114864e-02 3.58057432e-02 3.58057432e-02</_>
    <_>
      1.45741001e-01 0. 5.82964011e-02 1.16592802e-01 0. 0.
      8.74445960e-02 2.33185604e-01 1.74889192e-01 2.91482005e-02 0. 0.
      0. 0. 0. 0. 5.82964011e-02 0. 2.91482005e-02 5.82964011e-02
      2.91482005e-02 5.82964011e-02 2.33185604e-01 0. 2.33185604e-01 0.
      0. 5.82964011e-02 0. 2.91482005e-02 8.74445960e-02 0.
      5.82964011e-02 2.91482005e-02 5.82964011e-02 8.74445960e-02
      1.74889192e-01 0. 4.37223017e-01 2.91482005e-02 0. 0. 0.
      2.91482005e-02 0. 8.74445960e-02 8.74445960e-02 0. 1.16592802e-01
      5.82964011e-02 2.91482005e-02 0. 0. 8.74445960e-02 1.74889192e-01
      2.91482005e-02 0. 2.91482005e-02 0. 0. 1.16592802e-01
      8.74445960e-02 0. 2.91482005e-02 2.91482005e-02 0. 2.91482005e-02
      0. 1.45741001e-01 2.91482005e-02 0. 1.16592802e-01 5.82964011e-02
      2.91482005e-02 1.45741001e-01 5.82964011e-02 5.82964011e-02
      2.33185604e-01 0. 0. 1.16592802e-01 0. 1.16592802e-01
      3.20630193e-01 1.16592802e-01 1.16592802e-01 0. 0. 0.
      2.91482005e-02 0. 1.16592802e-01 8.74445960e-02 1.16592802e-01
      8.74445960e-02 0. 1.16592802e-01 1.45741001e-01 2.04037413e-01
      2.91482005e-02</_>
    <_>
      0. 0. 0. 3.60843897e-01 3.60843897e-01 0. 1.44337565e-01 0. 0.
      7.21687824e-02 0. 0. 0. 7.21687824e-02 0. 1.44337565e-01 0. 0. 0.
      7.21687824e-02 0. 0. 0. 7.21687824e-02 0. 0. 0. 0. 7.21687824e-02
      0. 0. 0. 0. 0. 0. 0. 0. 0. 7.21687824e-02 7.21687824e-02
      7.21687824e-02 0. 0. 1.44337565e-01 0. 0. 0. 0. 0. 7.21687824e-02
      7.21687824e-02 0. 0. 0. 2.88675129e-01 0. 0. 0. 0. 7.21687824e-02
      0. 2.16506347e-01 0. 0. 5.05181491e-01 7.21687824e-02 0. 0.
      7.21687824e-02 1.44337565e-01 0. 0. 0. 0. 0. 7.21687824e-02
      7.21687824e-02 2.16506347e-01 7.21687824e-02 0. 0. 7.21687824e-02
      0. 0. 1.44337565e-01 0. 0. 0. 2.16506347e-01 7.21687824e-02 0. 0.
      0. 7.21687824e-02 7.21687824e-02 0. 7.21687824e-02 0.
      2.16506347e-01 0.</_>
    <_>
      0. 1.74740821e-01 0. 4.36852038e-01 1.74740821e-01 0.
      8.73704106e-02 0. 0. 0. 0. 0. 0. 0. 0. 8.73704106e-02 0. 0. 0. 0.
      8.73704106e-02 0. 0. 1.74740821e-01 0. 8.73704106e-02 0. 0. 0.
      8.73704106e-02 0. 0. 0. 8.73704106e-02 0. 0. 0. 0. 0.
      1.74740821e-01 3.49481642e-01 0. 0. 0. 0. 0. 0. 0. 0. 0.
      8.73704106e-02 0. 0. 0. 1.74740821e-01 0. 8.73704106e-02 0. 0. 0.
      0. 0. 1.74740821e-01 0. 0. 1.74740821e-01 0. 0. 0. 2.62111247e-01
      0. 0. 0. 0. 8.73704106e-02 0. 1.74740821e-01 8.73704106e-02
      3.49481642e-01 0. 0. 0. 0. 0. 1.74740821e-01 0. 0. 8.73704106e-02
      0. 0. 0. 0. 0. 2.62111247e-01 0. 0. 0. 2.62111247e-01 0. 0.</_>
    <_>
      0. 0. 6.50944486e-02 1.30188897e-01 6.50944486e-02 0. 0. 0.
      6.50944486e-02 0. 0. 1.30188897e-01 0. 0. 3.25472265e-01 0. 0. 0.
      6.50944486e-02 1.30188897e-01 6.50944486e-02 0. 0. 6.50944486e-02
      2.60377795e-01 1.30188897e-01 6.50944486e-02 0. 0. 0.
      6.50944486e-02 0. 0. 6.50944486e-02 0. 3.25472265e-01
      6.50944486e-02 0. 2.60377795e-01 0. 0. 0. 0. 0. 0. 6.50944486e-02
      0. 0. 1.95283353e-01 0. 0. 0. 2.60377795e-01 0. 0. 0.
      6.50944486e-02 0. 0. 0. 6.50944486e-02 0. 0. 2.60377795e-01 0. 0.
      0. 0. 0. 0. 0. 0. 1.95283353e-01 0. 0. 0. 1.95283353e-01 0.
      6.50944486e-02 0. 0. 0. 4.55661178e-01 0. 6.50944486e-02 0.
      6.50944486e-02 0. 0. 0. 0. 0. 0. 1.95283353e-01 0. 0. 0.
      1.30188897e-01 6.50944486e-02 0.</_>
    <_>
      1.36717185e-01 0. 0. 1.36717185e-01 0. 1.36717185e-01 0. 0.
      2.05075786e-01 0. 6.83585927e-02 2.05075786e-01 0. 0. 0.
      1.36717185e-01 4.10151571e-01 0. 6.83585927e-02 6.83585927e-02 0.
      0. 1.36717185e-01 6.83585927e-02 0. 2.73434371e-01 0.
      2.05075786e-01 0. 6.83585927e-02 2.05075786e-01 0. 0. 0. 0.
      1.36717185e-01 0. 0. 0. 6.83585927e-02 0. 0. 0. 0. 0. 0. 0.
      1.36717185e-01 2.05075786e-01 6.83585927e-02 6.83585927e-02
      6.83585927e-02 0. 0. 0. 0. 0. 0. 0. 0. 6.83585927e-02
      6.83585927e-02 6.83585927e-02 2.05075786e-01 0. 2.05075786e-01 0.
      6.83585927e-02 0. 0. 0. 0. 1.36717185e-01 0. 0. 0. 1.36717185e-01
      6.83585927e-02 2.73434371e-01 6.83585927e-02 0. 0. 2.05075786e-01
      6.83585927e-02 1.36717185e-01 1.36717185e-01 0. 1.36717185e-01 0.
      0. 6.83585927e-02 0. 0. 1.36717185e-01 0. 0. 6.83585927e-02
      1.36717185e-01 0. 0.</_>
    <_>
      0. 4.19960544e-02 0. 0. 0. 1.67984217e-01 0. 4.19960544e-02
      8.39921087e-02 0. 8.39921087e-02 0. 0. 0. 0. 1.25988156e-01
      8.39921087e-02 4.19960544e-02 0. 1.25988156e-01 8.39921087e-02
      1.67984217e-01 0. 4.19960544e-02 0. 0. 0. 4.19960544e-02 0.
      8.39921087e-02 4.19960544e-02 0. 0. 0. 0. 2.51976311e-01
      4.19960544e-02 4.19960544e-02 8.39921087e-02 8.39921087e-02 0. 0.
      1.25988156e-01 0. 8.39921087e-02 0. 8.39921087e-02 0. 0.
      8.39921087e-02 0. 0. 8.39921087e-02 0. 2.09980264e-01
      4.19960544e-02 0. 0. 1.67984217e-01 4.19960544e-02 0. 0.
      4.19960544e-02 0. 2.09980264e-01 4.19960544e-02 0. 8.39921087e-02
      0. 0. 0. 4.19960544e-02 2.93972373e-01 0. 0. 0. 0. 4.19960544e-02
      0. 1.25988156e-01 1.25988156e-01 0. 1.25988156e-01 4.19960544e-02
      2.93972373e-01 2.09980264e-01 0. 0. 0. 0. 4.19960544e-02
      8.39921087e-02 8.39921087e-02 5.45948744e-01 0. 4.19960544e-02
      8.39921087e-02 1.25988156e-01 4.19960544e-02 0.</_>
    <_>
      0. 3.50715332e-02 3.50715332e-02 0. 1.40286133e-01 3.50715332e-02
      1.75357655e-01 7.01430663e-02 1.40286133e-01 3.50715332e-02
      3.50715332e-02 7.01430663e-02 3.50715332e-02 0. 0. 7.01430663e-02
      0. 3.50715332e-02 7.01430663e-02 1.05214596e-01 7.01430663e-02
      3.50715332e-02 0. 7.01430663e-02 3.50715332e-02 0. 3.50715332e-02
      0. 0. 7.01430663e-02 0. 1.05214596e-01 0. 1.75357655e-01
      7.01430663e-02 3.50715332e-02 0. 0. 0. 1.40286133e-01
      7.01430663e-02 0. 7.01430663e-02 0. 0. 0. 1.05214596e-01 0. 0. 0.
      7.01430663e-02 0. 3.50715332e-02 0. 5.61144531e-01 3.50715332e-02
      1.05214596e-01 0. 7.01430663e-02 7.01430663e-02 7.01430663e-02
      7.01430663e-02 3.50715332e-02 0. 0. 2.10429192e-01 3.50715332e-02
      1.75357655e-01 3.50715332e-02 7.01430663e-02 0. 0. 7.01430663e-02
      0. 7.01430663e-02 0. 1.40286133e-01 1.40286133e-01 2.45500728e-01
      7.01430663e-02 7.01430663e-02 0. 1.40286133e-01 7.01430663e-02
      1.75357655e-01 1.40286133e-01 0. 1.05214596e-01 7.01430663e-02 0.
      0. 3.50715332e-02 0. 2.45500728e-01 1.40286133e-01 0.
      2.10429192e-01 0. 1.05214596e-01 0.</_>
    <_>
      0. 1.57956004e-01 6.31823987e-02 0. 0. 3.47503215e-01
      3.15911993e-02 3.79094422e-01 3.15911993e-02 0. 3.15911993e-02
      3.15911993e-02 0. 0. 1.26364797e-01 0. 1.57956004e-01 0.
      6.31823987e-02 3.15911993e-02 3.15911993e-02 3.15911993e-02
      1.57956004e-01 1.26364797e-01 3.15911993e-02 6.31823987e-02 0.
      1.26364797e-01 3.15911993e-02 6.31823987e-02 1.57956004e-01
      3.15911993e-02 0. 6.31823987e-02 6.31823987e-02 0. 0.
      3.15911993e-02 0. 0. 6.31823987e-02 0. 0. 0. 6.31823987e-02 0. 0.
      6.31823987e-02 9.47736055e-02 9.47736055e-02 9.47736055e-02 0.
      3.15911993e-02 1.26364797e-01 0. 0. 9.47736055e-02 1.26364797e-01
      3.15911993e-02 0. 6.31823987e-02 0. 0. 1.26364797e-01
      6.31823987e-02 0. 0. 3.15911993e-02 6.31823987e-02 0. 0.
      1.26364797e-01 1.26364797e-01 9.47736055e-02 3.15911993e-02 0. 0.
      1.26364797e-01 6.31823987e-02 6.00232840e-01 9.47736055e-02 0. 0.
      0. 0. 0. 0. 9.47736055e-02 3.15911993e-02 0. 0. 3.15911993e-02 0.
      0. 0. 0. 0. 0. 0. 0.</_>
    <_>
      1.15986697e-01 3.86622325e-02 1.15986697e-01 0. 3.86622325e-02 0.
      0. 0. 0. 0. 0. 0. 0. 0. 5.79933465e-01 1.54648930e-01
      2.31973395e-01 0. 3.86622325e-02 1.15986697e-01 7.73244649e-02 0.
      0. 0. 0. 1.54648930e-01 3.86622325e-02 0. 0. 3.86622325e-02 0. 0.
      7.73244649e-02 1.54648930e-01 0. 3.86622325e-02 2.70635635e-01
      3.86622325e-02 0. 7.73244649e-02 1.93311170e-01 7.73244649e-02
      7.73244649e-02 0. 0. 0. 0. 7.73244649e-02 3.86622325e-02
      1.15986697e-01 0. 3.86622325e-02 0. 0. 7.73244649e-02 0. 0. 0.
      7.73244649e-02 7.73244649e-02 7.73244649e-02 0. 1.54648930e-01
      3.86622325e-02 1.15986697e-01 7.73244649e-02 7.73244649e-02
      3.86622325e-02 7.73244649e-02 7.73244649e-02 7.73244649e-02
      1.93311170e-01 3.86622325e-02 1.15986697e-01 0. 0. 0.
      7.73244649e-02 0. 1.93311170e-01 7.73244649e-02 3.86622325e-02 0.
      3.09297860e-01 1.15986697e-01 0. 3.86622325e-02 0. 0.
      1.15986697e-01 0. 0. 3.86622325e-02 0. 0. 0. 0. 0. 3.86622325e-02
      0.</_>
    <_>
      4.52678725e-02 2.71607220e-01 0. 0. 0. 4.52678710e-01 0.
      1.35803610e-01 0. 9.05357450e-02 0. 4.52678725e-02 0.
      4.52678725e-02 2.26339355e-01 0. 0. 0. 0. 4.52678725e-02
      4.52678725e-02 2.26339355e-01 4.52678725e-02 0. 0. 4.52678725e-02
      0. 4.52678725e-02 0. 4.52678725e-02 1.35803610e-01 0. 0. 0.
      9.05357450e-02 4.52678725e-02 0. 1.81071490e-01 9.05357450e-02
      4.52678725e-02 0. 9.05357450e-02 0. 0. 0. 0. 9.05357450e-02
      9.05357450e-02 0. 0. 1.35803610e-01 0. 9.05357450e-02 0.
      1.35803610e-01 4.52678725e-02 0. 4.52678725e-02 1.81071490e-01 0.
      0. 0. 0. 0. 4.52678725e-02 4.52678725e-02 0. 2.26339355e-01 0. 0.
      0. 3.62142980e-01 2.71607220e-01 0. 0. 0. 0. 4.52678725e-02
      4.52678725e-02 3.16875100e-01 0. 0. 0. 0. 0. 0. 0. 1.35803610e-01
      0. 0. 0. 0. 4.52678725e-02 0. 0. 0. 0. 4.52678725e-02 0.
      9.05357450e-02</_>
    <_>
      0. 0. 4.17391919e-02 0. 0. 8.34783837e-02 0. 1.25217572e-01 0.
      4.17391919e-02 0. 0. 0. 0. 0. 0. 0. 0. 4.17391919e-02 0.
      8.34783837e-02 4.17391919e-02 4.17391919e-02 4.17391919e-02 0.
      4.17391919e-02 0. 0. 4.17391919e-02 4.17391919e-02 1.25217572e-01
      0. 0. 0. 9.18262243e-01 0. 0. 0. 0. 0. 0. 0. 0. 0. 0. 0. 0. 0.
      4.17391919e-02 0. 0. 0. 0. 8.34783837e-02 0. 0. 0. 0.
      8.34783837e-02 0. 0. 0. 0. 0. 4.17391919e-02 0. 0. 0.
      4.17391919e-02 0. 4.17391919e-02 1.66956767e-01 4.17391919e-02 0.
      0. 0. 0. 4.17391919e-02 0. 1.66956767e-01 0. 8.34783837e-02 0. 0.
      0. 0. 0. 8.34783837e-02 0. 0. 0. 0. 0. 4.17391919e-02 0. 0. 0. 0.
      0. 0.</_>
    <_>
      9.81524810e-02 1.17782988e-01 9.81524810e-02 1.96304973e-02 0.
      3.92609946e-02 0. 1.17782988e-01 0. 5.88914938e-02 1.96304973e-02
      0. 1.96304973e-02 3.14087957e-01 4.12240446e-01 1.96304973e-02 0.
      1.96304973e-02 3.92609946e-02 5.88914938e-02 0. 0. 5.88914938e-02
      0. 0. 5.88914938e-02 1.96304973e-02 1.57043979e-01 3.92609946e-02
      5.88914938e-02 1.96304973e-02 3.92609946e-02 0. 3.92609946e-02
      3.33718449e-01 1.57043979e-01 7.85219893e-02 5.88914938e-02 0.
      3.92609946e-02 3.92609946e-02 1.96304973e-02 0. 0. 2.35565975e-01
      7.85219893e-02 0. 1.96304973e-02 7.85219893e-02 3.92609946e-02
      1.96304973e-02 7.85219893e-02 1.96304973e-02 5.88914938e-02 0.
      3.92609946e-02 0. 1.96304973e-02 5.88914938e-02 3.92609946e-02
      7.85219893e-02 1.96304973e-02 5.88914938e-02 7.85219893e-02
      1.96304973e-02 0. 1.37413487e-01 7.85219893e-02 7.85219893e-02 0.
      5.88914938e-02 4.31870937e-01 9.81524810e-02 1.57043979e-01
      7.85219893e-02 2.35565975e-01 0. 0. 0. 0. 5.88914938e-02
      3.92609946e-02 1.17782988e-01 3.92609946e-02 0. 0. 1.96304973e-02
      9.81524810e-02 1.96304973e-02 5.88914938e-02 7.85219893e-02
      5.88914938e-02 7.85219893e-02 0. 3.92609946e-02 0. 5.88914938e-02
      0. 5.88914938e-02 5.88914938e-02</_>
    <_>
      5.17087691e-02 0. 6.89450279e-02 2.58543849e-01 2.06835076e-01
      1.72362570e-02 1.72362551e-01 0. 0. 1.20653793e-01 0. 0. 0.
      1.20653793e-01 2.58543849e-01 6.89450279e-02 0. 3.44725139e-02
      5.17087691e-02 1.89598814e-01 0. 1.37890056e-01 3.44725139e-02
      5.17087691e-02 3.44725139e-02 3.44725139e-02 1.72362570e-02
      1.20653793e-01 6.89450279e-02 0. 3.44725139e-02 1.20653793e-01
      5.17087691e-02 1.20653793e-01 1.03417538e-01 1.03417538e-01
      1.37890056e-01 5.17087691e-02 1.72362570e-02 1.72362570e-02
      1.55126303e-01 0. 5.17087691e-02 1.72362570e-02 1.20653793e-01
      5.17087691e-02 5.17087691e-02 8.61812755e-02 5.17087691e-02
      3.44725139e-02 3.44725139e-02 8.61812755e-02 0. 1.03417538e-01
      3.44725139e-02 1.72362570e-02 6.89450279e-02 1.72362570e-02
      5.17087691e-02 1.37890056e-01 2.75780112e-01 3.44725139e-02
      3.44725139e-02 6.89450279e-02 0. 8.61812755e-02 6.89450279e-02
      5.17087691e-02 0. 6.89450279e-02 1.03417538e-01 1.72362551e-01
      5.17087691e-02 1.72362570e-02 3.44725139e-02 1.89598814e-01 0.
      3.44725102e-01 1.72362570e-02 5.17087691e-02 2.41307586e-01
      1.03417538e-01 3.44725139e-02 5.17087691e-02 3.44725139e-02
      1.20653793e-01 8.61812755e-02 1.72362551e-01 5.17087691e-02
      1.72362570e-02 8.61812755e-02 5.17087691e-02 6.89450279e-02
      8.61812755e-02 0. 5.17087691e-02 1.37890056e-01 0. 8.61812755e-02
      0.</_>
    <_>
      6.02748729e-02 3.01374365e-02 3.01374365e-02 6.02748729e-02 0. 0.
      6.02748729e-02 1.50687188e-01 9.04123187e-02 1.20549746e-01
      3.01374365e-02 6.02748729e-02 1.20549746e-01 0. 6.02748729e-02 0.
      4.21924114e-01 3.01374365e-02 3.01374365e-02 0. 9.04123187e-02
      3.01374365e-02 9.04123187e-02 0. 0. 9.04123187e-02 0.
      3.01374376e-01 0. 6.02748729e-02 1.80824637e-01 0. 6.02748729e-02
      0. 3.61649275e-01 2.10962057e-01 3.01374365e-02 6.02748729e-02
      3.01374365e-02 0. 1.20549746e-01 0. 6.02748729e-02 0.
      3.01374365e-02 0. 3.01374365e-02 1.20549746e-01 9.04123187e-02
      1.80824637e-01 0. 9.04123187e-02 3.01374365e-02 0. 1.20549746e-01
      0. 0. 9.04123187e-02 9.04123187e-02 0. 3.01374365e-02
      6.02748729e-02 6.02748729e-02 3.01374365e-02 1.20549746e-01
      3.01374365e-02 6.02748729e-02 9.04123187e-02 3.01374365e-02 0.
      6.02748729e-02 3.31511796e-01 9.04123187e-02 0. 1.20549746e-01 0.
      0. 1.20549746e-01 3.01374365e-02 3.01374365e-02 1.20549746e-01 0.
      3.01374365e-02 3.01374365e-02 3.01374365e-02 3.01374365e-02 0.
      6.02748729e-02 0. 0. 1.20549746e-01 0. 0. 0. 0. 0. 3.01374365e-02
      2.10962057e-01 3.01374365e-02 1.20549746e-01</_>
    <_>
      0. 1.25788644e-01 7.54731894e-02 0. 0. 1.76104113e-01 0. 0. 0.
      1.00630917e-01 0. 0. 2.51577288e-01 2.01261833e-01 5.03154576e-01
      0. 0. 0. 5.03154583e-02 2.51577292e-02 2.51577292e-02 0. 0. 0.
      5.03154583e-02 2.51577292e-02 0. 2.26419568e-01 0. 1.00630917e-01
      1.00630917e-01 0. 2.51577292e-02 0. 3.27050477e-01 3.01892757e-01
      1.00630917e-01 1.50946379e-01 0. 0. 0. 5.03154583e-02
      2.51577292e-02 5.03154583e-02 0. 0. 1.25788644e-01 1.00630917e-01
      1.00630917e-01 0. 1.00630917e-01 0. 5.03154583e-02 1.76104113e-01
      0. 0. 2.51577292e-02 0. 1.76104113e-01 0. 5.03154583e-02 0. 0. 0.
      0. 0. 0. 5.03154583e-02 1.50946379e-01 0. 0. 0. 2.01261833e-01
      5.03154583e-02 5.03154583e-02 2.51577292e-02 2.51577292e-02 0. 0.
      5.03154583e-02 0. 0. 1.50946379e-01 1.25788644e-01 5.03154583e-02
      2.51577292e-02 0. 1.50946379e-01 0. 0. 0. 0. 2.51577292e-02 0. 0.
      2.51577292e-02 0. 0. 0. 1.00630917e-01</_>
    <_>
      1.49071202e-01 0. 0. 2.23606795e-01 3.72678004e-02 0.
      7.45356008e-02 0. 3.72678004e-02 3.72678004e-02 7.45356008e-02
      1.49071202e-01 0. 1.49071202e-01 3.72678004e-02 3.72678004e-02
      3.72678004e-02 3.72678004e-02 0. 7.45356008e-02 0. 3.72678004e-02
      1.11803398e-01 0. 0. 1.11803398e-01 3.72678004e-02 0. 0. 0. 0. 0.
      7.45356008e-02 0. 0. 0. 1.86339006e-01 0. 0. 0. 1.11803398e-01
      1.11803398e-01 0. 3.72678004e-02 2.23606795e-01 3.72678004e-02 0.
      0. 1.49071202e-01 2.23606795e-01 0. 2.60874599e-01 0. 0. 0.
      3.72678004e-02 0. 2.98142403e-01 3.72678004e-02 4.84481394e-01
      1.86339006e-01 7.45356008e-02 0. 0. 3.72678004e-02 1.11803398e-01
      2.23606795e-01 0. 0. 0. 0. 0. 0. 7.45356008e-02 0. 7.45356008e-02
      0. 1.49071202e-01 0. 0. 1.11803398e-01 1.49071202e-01 0. 0.
      7.45356008e-02 1.11803398e-01 3.72678004e-02 0. 0. 0.
      1.86339006e-01 0. 7.45356008e-02 3.72678004e-02 0. 0. 0.
      7.45356008e-02 7.45356008e-02 0.</_>
    <_>
      0. 0. 0. 5.84206246e-02 0. 1.16841249e-01 0. 2.33682498e-01 0.
      1.75261885e-01 2.33682498e-01 5.84206246e-02 0. 5.84206246e-02 0.
      0. 0. 0. 5.84206246e-02 5.84206246e-02 1.16841249e-01
      1.16841249e-01 5.84206246e-02 2.33682498e-01 0. 5.84206246e-02
      5.84206246e-02 0. 0. 5.84206246e-02 0. 0. 0. 0. 3.50523770e-01
      2.33682498e-01 5.84206246e-02 1.16841249e-01 0. 0. 0.
      1.16841249e-01 2.33682498e-01 0. 0. 5.84206246e-02 1.16841249e-01
      1.75261885e-01 0. 0. 2.33682498e-01 1.16841249e-01 0.
      1.75261885e-01 1.75261885e-01 0. 0. 0. 1.16841249e-01
      5.84206246e-02 0. 0. 0. 0. 0. 0. 5.84206246e-02 1.16841249e-01
      1.16841249e-01 0. 0. 2.92103112e-01 0. 0. 0. 0. 0. 0.
      1.16841249e-01 5.84206246e-02 0. 0. 5.84206246e-02 2.33682498e-01
      5.84206246e-02 5.84206246e-02 0. 0. 5.84206246e-02 5.84206246e-02
      5.84206246e-02 1.16841249e-01 0. 0. 0. 2.33682498e-01 0. 0. 0. 0.</_>
    <_>
      0. 1.14615574e-01 8.18682611e-02 1.80110186e-01 1.14615574e-01 0.
      3.27473059e-02 3.27473059e-02 0. 1.63736530e-02 1.96483850e-01 0.
      9.82419252e-02 0. 6.22198820e-01 1.30989224e-01 1.63736530e-02
      4.91209626e-02 4.91209626e-02 4.91209626e-02 0. 3.27473059e-02 0.
      1.14615574e-01 3.27473059e-02 0. 1.96483850e-01 4.91209626e-02
      1.63736530e-02 4.91209626e-02 0. 4.91209626e-02 0. 6.54946119e-02
      0. 1.63736530e-02 9.82419252e-02 0. 0. 8.18682611e-02
      1.14615574e-01 0. 6.54946119e-02 1.80110186e-01 0. 4.91209626e-02
      1.14615574e-01 0. 1.63736530e-02 1.63736530e-02 0. 4.91209626e-02
      0. 0. 1.30989224e-01 8.18682611e-02 6.54946119e-02 1.63736530e-02
      4.91209626e-02 9.82419252e-02 1.63736530e-02 6.54946119e-02
      1.63736530e-02 0. 0. 9.82419252e-02 1.14615574e-01 1.63736530e-02
      4.91209626e-02 6.54946119e-02 9.82419252e-02 1.30989224e-01
      4.91209626e-02 0. 1.63736530e-02 4.91209626e-02 4.91209626e-02
      6.54946119e-02 6.54946119e-02 0. 9.82419252e-02 6.54946119e-02
      1.63736530e-02 1.96483850e-01 1.63736530e-02 1.80110186e-01
      4.91209626e-02 0. 1.14615574e-01 1.30989224e-01 1.14615574e-01
      6.54946119e-02 1.63736530e-02 9.82419252e-02 1.47362873e-01
      1.47362873e-01 8.18682611e-02 0. 8.18682611e-02 3.27473059e-02</_>
    <_>
      4.95986342e-02 9.91972685e-02 2.47993171e-02 1.23996593e-01
      1.73595220e-01 9.91972685e-02 4.95986342e-02 1.73595220e-01
      7.43979514e-02 1.23996593e-01 0. 0. 7.43979514e-02 0.
      1.98394537e-01 4.95986342e-02 4.95986342e-02 0. 2.47993171e-02
      7.43979514e-02 0. 2.47993171e-02 2.47993171e-02 1.98394537e-01 0.
      2.47993171e-02 4.95986342e-02 2.23193854e-01 4.95986342e-02
      1.73595220e-01 1.48795903e-01 0. 4.95986342e-02 4.95986342e-02
      5.70384324e-01 2.47993171e-02 0. 1.48795903e-01 0. 0.
      4.95986342e-02 0. 7.43979514e-02 2.47993171e-02 2.47993171e-02
      7.43979514e-02 2.47993171e-02 2.47993171e-02 9.91972685e-02
      2.47993171e-02 0. 4.95986342e-02 4.95986342e-02 4.95986342e-02
      1.73595220e-01 2.47993171e-02 4.95986342e-02 2.47993171e-02
      1.48795903e-01 2.47993171e-02 0. 0. 1.23996593e-01 2.47993171e-02
      0. 7.43979514e-02 4.95986342e-02 1.48795903e-01 2.47993171e-02 0.
      0. 1.48795903e-01 1.98394537e-01 2.47993171e-02 0. 0.
      4.95986342e-02 0. 4.95986342e-02 1.98394537e-01 7.43979514e-02
      7.43979514e-02 7.43979514e-02 7.43979514e-02 2.47993171e-02 0.
      7.43979514e-02 1.48795903e-01 1.48795903e-01 0. 2.47993171e-02 0.
      2.47993171e-02 0. 0. 2.47993171e-02 0. 2.47993171e-02
      4.95986342e-02 0.</_>
    <_>
      3.61787304e-02 1.08536184e-01 0. 2.89429843e-01 0. 0. 0. 0. 0.
      3.61787304e-02 3.61787304e-02 3.61787304e-02 7.23574609e-02
      3.61787304e-02 6.15038395e-01 1.08536184e-01 0. 0. 0. 0. 0. 0. 0.
      0. 0. 0. 7.23574609e-02 3.61787304e-02 3.61787304e-02
      7.23574609e-02 0. 0. 0. 0. 0. 1.80893660e-01 1.44714922e-01
      7.23574609e-02 0. 3.61787304e-02 7.23574609e-02 1.08536184e-01 0.
      0. 3.25608581e-01 0. 0. 3.61787304e-02 3.61787304e-02
      7.23574609e-02 3.61787304e-02 3.61787304e-02 1.08536184e-01
      3.61787304e-02 0. 3.61787304e-02 0. 0. 7.23574609e-02
      1.08536184e-01 7.23574609e-02 0. 3.61787304e-02 0. 3.61787304e-02
      7.23574609e-02 1.08536184e-01 1.08536184e-01 3.61787304e-02 0. 0.
      1.44714922e-01 7.23574609e-02 0. 7.23574609e-02 7.23574609e-02
      1.44714922e-01 0. 1.08536184e-01 0. 7.23574609e-02 7.23574609e-02
      0. 3.61787304e-02 1.44714922e-01 3.61787304e-02 7.23574609e-02
      7.23574609e-02 0. 2.17072368e-01 2.17072368e-01 0. 0.
      7.23574609e-02 0. 7.23574609e-02 3.61787304e-02 3.61787304e-02
      7.23574609e-02 0.</_>
    <_>
      1.85026620e-02 1.48021296e-01 1.85026620e-02 2.59037256e-01
      1.66523963e-01 0. 0. 3.70053239e-02 0. 1.85026620e-02
      1.11015975e-01 0. 1.48021296e-01 0. 6.47593200e-01 1.11015975e-01
      0. 5.55079877e-02 5.55079877e-02 3.70053239e-02 0. 0. 0.
      1.85026620e-02 9.25133079e-02 0. 2.03529283e-01 1.85026620e-02 0.
      5.55079877e-02 1.85026620e-02 0. 0. 3.70053239e-02 0. 0.
      7.40106478e-02 3.70053239e-02 0. 0. 5.55079877e-02 0. 0.
      1.48021296e-01 0. 1.85026620e-02 1.85026620e-02 1.85026620e-02 0.
      5.55079877e-02 0. 5.55079877e-02 0. 1.85026620e-02 9.25133079e-02
      5.55079877e-02 3.70053239e-02 0. 3.70053239e-02 9.25133079e-02
      5.55079877e-02 0. 0. 1.85026620e-02 0. 7.40106478e-02
      9.25133079e-02 3.70053239e-02 5.55079877e-02 5.55079877e-02
      1.48021296e-01 1.48021296e-01 0. 1.85026620e-02 0. 1.11015975e-01
      1.85026620e-02 3.70053239e-02 0. 0. 0. 9.25133079e-02 0.
      2.77539939e-01 0. 7.40106478e-02 3.70053239e-02 0. 3.70053239e-02
      1.85026616e-01 1.29518628e-01 0. 5.55079877e-02 0. 2.03529283e-01
      1.11015975e-01 5.55079877e-02 0. 3.70053239e-02 1.85026620e-02</_>
    <_>
      4.96597551e-02 1.11734450e-01 7.44896308e-02 1.48979262e-01
      8.69045705e-02 1.24149388e-02 0. 0. 1.24149388e-02 3.72448154e-02
      2.48298775e-02 1.24149388e-02 1.48979262e-01 8.69045705e-02
      3.72448146e-01 2.48298775e-02 7.44896308e-02 0. 4.96597551e-02
      3.72448154e-02 1.24149388e-02 2.48298775e-02 1.24149388e-02 0. 0.
      3.72448154e-02 1.24149388e-02 6.20746948e-02 1.24149390e-01
      2.48298775e-02 3.72448154e-02 3.72448154e-02 2.48298775e-02
      1.24149388e-02 2.48298775e-02 1.73809141e-01 7.44896308e-02
      3.72448154e-02 1.24149388e-02 3.72448154e-02 6.20746948e-02
      2.48298775e-02 2.48298775e-02 8.69045705e-02 3.72448154e-02
      1.24149388e-02 4.96597551e-02 4.96597551e-02 1.24149388e-02
      1.11734450e-01 0. 1.61394209e-01 1.24149388e-02 4.96597551e-02
      4.96597551e-02 0. 2.48298775e-02 1.24149388e-02 7.44896308e-02
      2.48298775e-02 3.22788417e-01 3.60033214e-01 1.61394209e-01
      1.24149388e-02 0. 0. 1.98639020e-01 2.48298775e-02 1.24149388e-02
      0. 2.48298775e-02 2.23468900e-01 3.72448154e-02 0. 1.36564329e-01
      2.48298775e-02 1.24149388e-02 4.96597551e-02 2.48298775e-02 0.
      8.69045705e-02 2.48298779e-01 3.72448154e-02 2.85543591e-01
      7.44896308e-02 4.96597551e-02 3.72448154e-02 2.48298775e-02
      3.72448154e-02 0. 2.73128659e-01 4.96597551e-02 3.72448154e-02
      3.72448154e-02 0. 4.96597551e-02 7.44896308e-02 0. 8.69045705e-02
      1.24149388e-02</_>
    <_>
      0. 1.85957253e-01 5.31306416e-02 0. 0. 7.96959624e-02
      2.65653208e-02 1.32826596e-01 2.65653208e-02 2.65653208e-02
      2.65653208e-02 5.31306416e-02 0. 0. 2.65653208e-02 1.06261283e-01
      0. 0. 0. 1.06261283e-01 2.65653208e-02 2.65653208e-02
      2.65653208e-02 1.06261283e-01 0. 2.65653208e-02 0. 1.85957253e-01
      1.59391925e-01 7.96959624e-02 2.65653193e-01 5.31306416e-02 0.
      5.31306416e-02 4.51610476e-01 2.65653193e-01 0. 1.06261283e-01
      2.65653208e-02 0. 2.65653208e-02 5.31306416e-02 0. 5.31306416e-02
      0. 0. 5.31306416e-02 2.65653208e-02 0. 5.31306416e-02
      1.06261283e-01 2.65653208e-02 7.96959624e-02 2.65653208e-02 0. 0.
      0. 5.31306416e-02 1.59391925e-01 0. 0. 0. 2.65653208e-02 0. 0. 0.
      0. 1.06261283e-01 0. 2.65653208e-02 5.31306416e-02 3.71914506e-01
      2.12522566e-01 0. 0. 0. 2.65653208e-02 0. 2.65653208e-02
      2.65653193e-01 2.65653208e-02 2.65653208e-02 7.96959624e-02
      1.32826596e-01 5.31306416e-02 0. 0. 2.92218536e-01 2.65653208e-02
      5.31306416e-02 0. 1.06261283e-01 7.96959624e-02 0. 0. 0. 0.
      2.65653208e-02 0. 0.</_>
    <_>
      0. 0. 0. 9.69003141e-02 4.84501570e-02 0. 0. 9.69003141e-02 0.
      9.69003141e-02 0. 9.69003141e-02 0. 0. 9.69003141e-02
      9.69003141e-02 0. 0. 4.84501570e-02 0. 0. 9.69003141e-02
      4.84501570e-02 0. 0. 0. 4.84501570e-02 0. 0. 4.84501570e-02
      4.84501570e-02 0. 0. 0. 1.45350471e-01 9.69003141e-02
      4.36051428e-01 4.84501570e-02 4.84501570e-02 0. 4.84501570e-02 0.
      0. 0. 0. 0. 5.32951713e-01 1.45350471e-01 4.84501570e-02
      1.45350471e-01 0. 1.93800628e-01 0. 4.84501570e-02 0. 0.
      4.84501570e-02 0. 9.69003141e-02 4.84501570e-02 1.45350471e-01
      1.45350471e-01 4.84501570e-02 0. 0. 0. 4.84501570e-02
      4.84501570e-02 4.84501570e-02 0. 0. 4.84501570e-02 0.
      9.69003141e-02 1.45350471e-01 9.69003141e-02 0. 4.84501570e-02 0.
      0. 4.84501570e-02 4.84501570e-02 9.69003141e-02 2.42250800e-01
      9.69003141e-02 2.42250800e-01 4.84501570e-02 9.69003141e-02 0. 0.
      2.42250800e-01 0. 4.84501570e-02 0. 0. 0. 0. 0. 0. 0.</_>
    <_>
      0. 0. 0. 0. 0. 0. 0. 4.34958816e-01 0. 1.24273956e-01 0. 0. 0. 0.
      1.24273956e-01 0. 0. 0. 6.21369779e-02 0. 0. 1.24273956e-01 0. 0.
      0. 0. 0. 6.21369779e-02 0. 1.24273956e-01 1.24273956e-01 0. 0.
      6.21369779e-02 2.48547912e-01 6.21369779e-02 0. 1.86410934e-01 0.
      6.21369779e-02 1.86410934e-01 0. 0. 0. 0. 0. 0. 1.24273956e-01
      1.86410934e-01 0. 0. 6.21369779e-02 0. 6.21369779e-02 0. 0. 0.
      1.86410934e-01 0. 6.21369779e-02 1.24273956e-01 1.24273956e-01
      6.21369779e-02 0. 6.21369779e-02 0. 4.97095823e-01 0.
      2.48547912e-01 6.21369779e-02 6.21369779e-02 0. 0. 6.21369779e-02
      6.21369779e-02 0. 0. 0. 6.21369779e-02 0. 0. 6.21369779e-02
      1.86410934e-01 0. 0. 0. 0. 1.86410934e-01 6.21369779e-02 0.
      1.86410934e-01 0. 6.21369779e-02 0. 0. 0. 0. 0. 0. 6.21369779e-02</_>
    <_>
      2.21948382e-02 6.65845126e-02 2.21948382e-02 6.65845126e-02
      2.21948382e-02 8.87793526e-02 0. 1.99753538e-01 4.43896763e-02
      1.33169025e-01 1.33169025e-01 4.43896763e-02 0. 0. 2.21948382e-02
      2.21948382e-02 1.77558705e-01 4.43896763e-02 0. 2.21948382e-02 0.
      0. 8.87793526e-02 1.55363873e-01 0. 2.21948382e-02 0.
      1.10974200e-01 8.87793526e-02 4.43896763e-02 2.21948400e-01
      2.21948382e-02 4.43896763e-02 0. 4.66091603e-01 2.21948400e-01
      2.21948382e-02 8.87793526e-02 8.87793526e-02 2.21948382e-02
      2.21948382e-02 1.33169025e-01 1.55363873e-01 0. 0. 2.21948382e-02
      2.21948382e-02 4.43896763e-02 2.21948382e-02 2.21948382e-02
      8.87793526e-02 0. 6.65845126e-02 6.65845126e-02 2.44143233e-01 0.
      0. 8.87793526e-02 8.87793526e-02 4.43896763e-02 2.21948382e-02 0.
      0. 0. 0. 4.43896763e-02 2.21948382e-02 1.10974200e-01
      6.65845126e-02 2.21948382e-02 4.43896763e-02 4.66091603e-01
      8.87793526e-02 6.65845126e-02 0. 0. 2.21948382e-02 0.
      8.87793526e-02 1.33169025e-01 2.21948382e-02 0. 2.21948382e-02
      1.10974200e-01 0. 2.21948382e-02 4.43896763e-02 1.10974200e-01
      6.65845126e-02 2.21948382e-02 2.21948382e-02 2.21948382e-02
      1.10974200e-01 4.43896763e-02 4.43896763e-02 8.87793526e-02 0.
      2.21948382e-02 2.21948382e-02 2.21948382e-02</_>
    <_>
      1.86844274e-01 1.61931708e-01 9.96502861e-02 2.49125704e-01
      1.24562858e-02 1.24562852e-01 7.47377127e-02 0. 8.71939957e-02
      3.73688564e-02 1.24562858e-02 2.11756855e-01 6.22814260e-02
      2.49125715e-02 4.98251431e-02 7.47377127e-02 2.11756855e-01
      3.73688564e-02 6.22814260e-02 0. 1.24562858e-02 1.24562858e-02
      1.24562852e-01 1.49475425e-01 0. 1.24562858e-02 9.96502861e-02
      8.71939957e-02 6.22814260e-02 7.47377127e-02 2.49125715e-02
      1.24562858e-02 1.61931708e-01 1.24562858e-02 2.49125715e-02
      7.47377127e-02 6.22814260e-02 3.73688564e-02 0. 4.98251431e-02 0.
      0. 1.61931708e-01 1.49475425e-01 1.37019143e-01 3.73688564e-02
      2.49125715e-02 4.98251431e-02 8.71939957e-02 1.74387991e-01
      1.12106569e-01 2.49125715e-02 7.47377127e-02 2.49125715e-02
      4.98251431e-02 1.86844274e-01 0. 2.49125715e-02 4.98251431e-02
      3.73688564e-02 1.37019143e-01 7.47377127e-02 4.98251431e-02
      8.71939957e-02 1.24562858e-02 8.71939957e-02 3.11407119e-01
      7.47377127e-02 1.24562852e-01 4.98251431e-02 1.12106569e-01
      8.71939957e-02 4.98251431e-02 1.37019143e-01 1.24562858e-02 0.
      7.47377127e-02 7.47377127e-02 7.47377127e-02 0. 1.37019143e-01
      9.96502861e-02 0. 3.48775983e-01 1.24562858e-02 0. 3.73688564e-02
      1.24562858e-02 8.71939957e-02 0. 7.47377127e-02 1.24562852e-01
      1.24562858e-02 1.24562858e-02 0. 9.96502861e-02 9.96502861e-02
      3.73688564e-02 7.47377127e-02 1.49475425e-01</_>
    <_>
      0. 2.46321261e-01 2.73690298e-02 0. 0. 8.21070895e-02 0.
      1.64214179e-01 5.47380596e-02 0. 5.47380596e-02 0. 2.73690298e-02
      0. 5.47380596e-02 5.47380596e-02 0. 0. 0. 8.21070895e-02 0.
      2.73690298e-02 2.73690298e-02 1.09476119e-01 2.73690298e-02
      5.47380596e-02 0. 1.36845142e-01 2.73690283e-01 8.21070895e-02
      1.91583201e-01 5.47380596e-02 0. 1.09476119e-01 2.73690283e-01
      2.73690283e-01 0. 1.36845142e-01 2.73690298e-02 0. 0.
      5.47380596e-02 0. 2.73690298e-02 0. 2.73690298e-02 5.47380596e-02
      5.47380596e-02 2.73690298e-02 5.47380596e-02 2.73690298e-02 0.
      5.47380596e-02 2.73690298e-02 0. 0. 0. 2.73690298e-02
      8.21070895e-02 0. 0. 2.73690298e-02 2.73690298e-02 0. 0. 0. 0.
      1.36845142e-01 2.73690298e-02 0. 0. 3.83166403e-01 1.36845142e-01
      0. 0. 0. 5.47380596e-02 0. 2.73690298e-02 4.10535425e-01
      8.21070895e-02 0. 5.47380596e-02 1.09476119e-01 5.47380596e-02
      2.73690298e-02 0. 3.55797380e-01 2.73690298e-02 5.47380596e-02 0.
      5.47380596e-02 5.47380596e-02 0. 0. 0. 0. 0. 0. 0.</_>
    <_>
      3.67607325e-02 0. 3.67607325e-02 0. 0. 3.30846578e-01 0.
      1.83803648e-01 1.10282190e-01 3.67607325e-02 0. 1.10282190e-01 0.
      0. 0. 0. 7.35214651e-02 0. 0. 7.35214651e-02 0. 7.35214651e-02 0.
      0. 0. 0. 0. 1.47042930e-01 0. 3.67607325e-02 2.57325113e-01 0. 0.
      7.35214651e-02 4.77889478e-01 0. 0. 7.35214651e-02 7.35214651e-02
      0. 0. 0. 0. 0. 3.67607325e-02 0. 0. 1.83803648e-01 0. 0. 0. 0. 0.
      1.83803648e-01 0. 0. 0. 2.57325113e-01 1.10282190e-01 0. 0. 0. 0.
      0. 0. 0. 3.67607325e-02 1.10282190e-01 0. 0. 0. 4.41128761e-01
      1.10282190e-01 0. 0. 0. 3.67607325e-02 0. 0. 1.83803648e-01
      3.67607325e-02 0. 1.83803648e-01 0. 0. 0. 0. 1.10282190e-01 0. 0.
      0. 7.35214651e-02 3.67607325e-02 0. 0. 0. 0. 1.47042930e-01 0. 0.</_>
    <_>
      1.34763420e-01 0. 2.35835999e-01 3.36908549e-02 1.68454275e-01 0.
      0. 2.69526839e-01 0. 6.73817098e-02 0. 2.02145129e-01
      3.36908549e-02 0. 2.02145129e-01 3.36908549e-02 2.35835999e-01 0.
      1.34763420e-01 6.73817098e-02 6.73817098e-02 3.36908549e-02
      1.01072565e-01 0. 0. 6.73817098e-02 3.36908549e-02 6.73817098e-02
      0. 0. 0. 3.36908549e-02 0. 6.73817098e-02 3.36908549e-01
      6.73817098e-02 3.36908549e-02 1.34763420e-01 6.73817098e-02 0.
      3.36908549e-02 3.36908549e-02 3.36908549e-02 0. 0. 0.
      1.01072565e-01 1.34763420e-01 3.36908549e-02 2.35835999e-01 0. 0.
      0. 6.73817098e-02 6.73817098e-02 6.73817098e-02 3.36908549e-02
      1.01072565e-01 3.36908549e-02 0. 6.73817098e-02 1.68454275e-01
      6.73817098e-02 6.73817098e-02 1.01072565e-01 0. 3.36908549e-02
      6.73817098e-02 6.73817098e-02 6.73817098e-02 1.68454275e-01 0. 0.
      6.73817098e-02 1.34763420e-01 0. 3.36908549e-02 3.36908549e-01 0.
      3.36908549e-02 6.73817098e-02 3.36908549e-02 2.02145129e-01
      3.36908549e-02 6.73817098e-02 6.73817098e-02 1.01072565e-01
      1.01072565e-01 0. 0. 0. 2.35835999e-01 0. 0. 0. 0. 3.36908549e-02
      0. 0. 3.36908549e-02</_>
    <_>
      2.25992315e-02 0. 0. 0. 0. 1.58194631e-01 0. 9.03969258e-02
      9.03969258e-02 1.12996161e-01 4.51984629e-02 0. 0. 0. 0.
      6.77976906e-02 0. 0. 6.77976906e-02 9.03969258e-02 4.51984629e-02
      6.77976906e-02 0. 6.77976906e-02 0. 2.25992315e-02 0.
      1.35595381e-01 0. 6.77976906e-02 2.48591542e-01 6.77976906e-02
      9.03969258e-02 1.12996161e-01 7.90973067e-01 0. 2.25992315e-02
      2.25992315e-02 0. 0. 0. 2.25992315e-02 2.25992315e-02 0. 0. 0. 0.
      6.77976906e-02 2.25992315e-02 0. 0. 2.25992315e-02 0.
      6.77976906e-02 1.58194631e-01 0. 0. 0. 6.77976906e-02 0.
      2.25992315e-02 0. 2.25992315e-02 0. 0. 0. 0. 4.51984629e-02
      2.25992315e-02 0. 0. 2.48591542e-01 2.25992315e-02 0.
      2.25992315e-02 0. 0. 0. 0. 6.77976906e-02 2.25992315e-02 0.
      2.25992315e-02 0. 4.51984629e-02 2.25992315e-02 0. 1.80793852e-01
      4.51984629e-02 0. 0. 2.25992315e-02 0. 0. 0. 2.25992315e-02 0.
      1.58194631e-01 2.25992315e-02 2.25992315e-02</_>
    <_>
      1.11946277e-01 1.27938598e-01 7.99616277e-02 1.43930927e-01
      1.59923248e-02 4.79769744e-02 0. 4.79769744e-02 0. 9.59539488e-02
      0. 1.59923248e-02 3.19846496e-02 7.99616277e-02 6.07708335e-01
      1.59923248e-02 1.43930927e-01 1.59923248e-02 6.39692992e-02
      4.79769744e-02 0. 0. 6.39692992e-02 0. 1.59923248e-02 0.
      4.79769744e-02 0. 0. 1.75915584e-01 4.79769744e-02 0.
      3.19846496e-02 0. 0. 1.59923248e-02 4.79769744e-02 1.59923248e-02
      0. 1.59923248e-02 3.19846496e-02 6.39692992e-02 0. 0.
      7.99616277e-02 1.59923248e-02 0. 1.59923248e-02 1.59923248e-02
      1.75915584e-01 1.59923248e-02 1.75915584e-01 3.19846496e-02
      1.59923248e-02 0. 2.23892555e-01 0. 0. 1.27938598e-01
      1.59923248e-02 0. 6.39692992e-02 4.15800422e-01 3.19846496e-02
      1.59923255e-01 0. 1.59923255e-01 1.59923255e-01 4.79769744e-02
      1.59923248e-02 4.79769744e-02 0. 1.27938598e-01 0. 6.39692992e-02
      0. 1.59923248e-02 0. 1.11946277e-01 1.59923248e-02 0.
      1.59923255e-01 0. 6.39692992e-02 0. 1.59923248e-02 7.99616277e-02
      1.59923248e-02 0. 1.59923248e-02 7.99616277e-02 0. 3.19846496e-02
      1.59923248e-02 1.59923248e-02 0. 0. 3.19846496e-02 0. 0.</_>
    <_>
      2.71763224e-02 2.71763224e-02 8.15289691e-02 8.15289691e-02 0.
      5.43526448e-02 5.43526448e-02 8.15289691e-02 1.35881618e-01
      2.71763224e-02 0. 2.17410579e-01 2.71763224e-02 2.71763224e-02
      1.90234259e-01 2.17410579e-01 1.35881618e-01 0. 2.71763224e-02
      2.71763224e-02 2.71763224e-02 2.71763224e-02 2.71763224e-02 0.
      8.15289691e-02 5.43526448e-02 0. 2.71763224e-02 0. 5.43526448e-02
      1.08705290e-01 5.43526448e-02 1.35881618e-01 5.43526448e-02
      1.90234259e-01 2.98939556e-01 8.15289691e-02 2.71763224e-02
      5.43526448e-02 0. 5.43526448e-02 8.15289691e-02 1.08705290e-01
      8.15289691e-02 8.15289691e-02 0. 3.53292197e-01 2.71763224e-02
      2.71763224e-02 5.43526448e-02 0. 0. 2.71763224e-02 8.15289691e-02
      2.71763224e-02 1.35881618e-01 0. 0. 5.43526448e-02 0.
      2.71763235e-01 5.43526448e-02 0. 5.43526448e-02 5.43526448e-02
      2.71763224e-02 1.08705290e-01 0. 1.08705290e-01 5.43526448e-02
      1.08705290e-01 5.43526448e-02 0. 2.71763224e-02 1.90234259e-01
      1.63057938e-01 2.71763224e-02 8.15289691e-02 2.71763224e-02
      1.35881618e-01 1.63057938e-01 8.15289691e-02 1.08705290e-01
      2.17410579e-01 8.15289691e-02 0. 0. 8.15289691e-02 0. 0.
      5.43526448e-02 1.08705290e-01 1.08705290e-01 1.90234259e-01 0. 0.
      8.15289691e-02 1.08705290e-01 1.08705290e-01 8.15289691e-02</_>
    <_>
      2.48298775e-02 0. 0. 0. 0. 0. 4.96597551e-02 1.24149382e-01
      1.98639020e-01 1.24149382e-01 0. 0. 4.96597551e-02 0.
      4.96597551e-02 4.96597551e-02 4.96597551e-02 0. 0. 0.
      9.93195102e-02 7.44896308e-02 2.48298775e-02 0. 0. 4.96597551e-02
      0. 2.48298775e-02 2.48298775e-02 0. 0. 0. 0. 0. 7.44896352e-01
      4.96597551e-02 0. 2.48298775e-02 1.98639020e-01 0. 9.93195102e-02
      0. 0. 0. 0. 0. 2.48298775e-02 4.96597551e-02 7.44896308e-02 0. 0.
      2.48298775e-02 0. 1.48979262e-01 0. 0. 0. 3.47618282e-01
      2.48298775e-02 4.96597551e-02 0. 0. 2.48298775e-02 0.
      4.96597551e-02 0. 2.48298775e-02 2.48298775e-02 4.96597551e-02 0.
      0. 2.48298775e-02 2.48298775e-02 7.44896308e-02 0. 0. 0.
      1.24149382e-01 2.48298775e-02 0. 0. 0. 4.96597551e-02 0. 0. 0. 0.
      2.73128629e-01 0. 4.96597551e-02 4.96597551e-02 0. 0. 0. 0. 0. 0.
      1.48979262e-01 0. 2.48298775e-02</_>
    <_>
      0. 0. 0. 2.75009543e-01 0. 9.16698501e-02 0. 9.16698501e-02 0.
      9.16698501e-02 9.16698501e-02 0. 0. 0. 0. 1.83339700e-01 0. 0. 0.
      0. 0. 0. 0. 9.16698501e-02 0. 0. 0. 0. 0. 1.83339700e-01
      1.83339700e-01 0. 9.16698501e-02 0. 9.16698501e-02 0. 0.
      1.83339700e-01 0. 0. 0. 0. 0. 0. 9.16698501e-02 0. 0. 0.
      1.83339700e-01 0. 2.75009543e-01 0. 0. 2.75009543e-01 0. 0. 0. 0.
      9.16698501e-02 0. 9.16698501e-02 0. 1.83339700e-01 0. 0. 0.
      4.58349258e-01 1.83339700e-01 0. 2.75009543e-01 0. 0. 0. 0.
      9.16698501e-02 0. 0. 0. 9.16698501e-02 0. 9.16698501e-02 0. 0. 0.
      9.16698501e-02 2.75009543e-01 9.16698501e-02 0. 0. 0.
      9.16698501e-02 0. 0. 9.16698501e-02 0. 0. 1.83339700e-01 0. 0. 0.</_>
    <_>
      6.57635480e-02 0. 8.76847208e-02 0. 4.38423604e-02 0.
      1.53448269e-01 2.19211802e-02 0. 0. 6.57635480e-02 2.19211802e-02
      1.53448269e-01 5.69950700e-01 4.38423604e-02 0. 2.19211802e-02 0.
      2.19211802e-02 2.19211802e-02 0. 4.38423604e-02 0. 4.38423604e-02
      0. 2.19211802e-02 0. 1.31527096e-01 0. 2.19211802e-02
      2.19211802e-02 0. 4.38423604e-02 2.19211802e-02 8.76847208e-02
      6.57635480e-02 2.19211802e-02 8.76847208e-02 0. 0. 6.57635480e-02
      2.19211802e-02 4.38423604e-02 2.19211802e-02 8.76847208e-02
      2.19211802e-02 2.19211802e-01 6.57635480e-02 4.38423604e-02
      1.31527096e-01 4.38423604e-02 8.76847208e-02 2.19211802e-02
      2.19211802e-02 0. 3.50738883e-01 2.19211802e-02 1.75369442e-01
      4.38423604e-02 1.53448269e-01 0. 1.09605901e-01 1.53448269e-01
      2.19211802e-02 4.38423604e-02 0. 2.63054192e-01 0. 2.19211802e-02
      0. 8.76847208e-02 2.19211802e-02 0. 0. 4.38423604e-02
      8.76847208e-02 4.38423604e-02 0. 6.57635480e-02 0. 2.19211802e-02
      1.31527096e-01 4.38423604e-02 4.38423604e-02 2.19211802e-02
      2.19211802e-02 8.76847208e-02 8.76847208e-02 6.57635480e-02 0.
      2.84975350e-01 2.19211802e-02 6.57635480e-02 0. 0. 1.09605901e-01
      4.38423604e-02 6.57635480e-02 6.57635480e-02 2.19211802e-02</_>
    <_>
      0. 2.00894862e-01 6.69649541e-02 3.34824771e-01 6.69649541e-02 0.
      0. 0. 0. 1.33929908e-01 6.69649541e-02 0. 0. 0. 0. 0. 0. 0. 0. 0.
      6.69649541e-02 0. 0. 6.69649541e-02 2.67859817e-01 1.33929908e-01
      3.34824771e-01 0. 0. 6.69649541e-02 0. 2.00894862e-01 0. 0. 0.
      6.69649541e-02 0. 6.69649541e-02 0. 6.69649541e-02 2.00894862e-01
      0. 1.33929908e-01 4.68754709e-01 6.69649541e-02 6.69649541e-02
      2.00894862e-01 1.33929908e-01 0. 6.69649541e-02 1.33929908e-01 0.
      2.67859817e-01 0. 0. 0. 0. 0. 6.69649541e-02 6.69649541e-02
      1.33929908e-01 6.69649541e-02 0. 0. 0. 6.69649541e-02
      6.69649541e-02 0. 0. 0. 0. 0. 0. 0. 0. 0. 6.69649541e-02 0. 0. 0.
      0. 0. 6.69649541e-02 0. 6.69649541e-02 1.33929908e-01 0. 0. 0.
      6.69649541e-02 0. 0. 0. 1.33929908e-01 6.69649541e-02
      6.69649541e-02 0. 0. 6.69649541e-02 0.</_>
    <_>
      3.10086850e-02 6.20173700e-02 1.24034740e-01 3.10086850e-02 0.
      9.30260494e-02 0. 1.24034740e-01 1.55043423e-01 9.30260494e-02 0.
      3.10086850e-02 6.20173700e-02 0. 2.48069480e-01 1.86052099e-01
      6.20173700e-02 0. 1.24034740e-01 9.30260494e-02 6.20173700e-02
      2.79078156e-01 6.20173700e-02 3.10086850e-02 0. 3.10086850e-02 0.
      3.10086850e-02 0. 6.20173700e-02 1.24034740e-01 0. 1.24034740e-01
      6.20173700e-02 3.10086846e-01 0. 0. 6.20173700e-02 2.17060804e-01
      0. 0. 0. 0. 0. 6.20173700e-02 0. 0. 6.20173700e-02 0.
      6.20173700e-02 0. 0. 3.10086850e-02 3.10086850e-02 3.10086850e-02
      0. 0. 0. 0. 0. 1.24034740e-01 3.10086850e-02 0. 1.24034740e-01
      1.55043423e-01 0. 3.10086850e-02 0. 1.24034740e-01 3.10086850e-02
      0. 1.24034740e-01 3.10086850e-02 0. 1.55043423e-01 0. 0.
      2.48069480e-01 0. 6.20173700e-02 2.79078156e-01 0. 0.
      9.30260494e-02 3.10086850e-02 0. 0. 4.03112888e-01 6.20173700e-02
      3.10086850e-02 0. 0. 9.30260494e-02 0. 0. 0. 3.10086850e-02
      2.48069480e-01 0. 0.</_>
    <_>
      4.83933911e-02 0. 0. 0. 0. 9.67867821e-02 0. 1.93573564e-01
      1.93573564e-01 9.67867821e-02 9.67867821e-02 0. 0. 0. 0. 0. 0. 0.
      0. 0. 0. 0. 0. 0. 0. 0. 0. 9.67867821e-02 0. 0. 0. 0. 0. 0.
      8.71081054e-01 4.83933911e-02 0. 9.67867821e-02 0. 9.67867821e-02
      0. 1.45180181e-01 0. 0. 0. 0. 0. 4.83933911e-02 0. 0.
      4.83933911e-02 0. 0. 4.83933911e-02 0. 0. 4.83933911e-02
      4.83933911e-02 0. 0. 0. 0. 0. 4.83933911e-02 0. 0. 0.
      4.83933911e-02 4.83933911e-02 0. 4.83933911e-02 9.67867821e-02
      9.67867821e-02 0. 0. 0. 0. 0. 0. 1.93573564e-01 0. 0.
      4.83933911e-02 0. 4.83933911e-02 0. 0. 0. 4.83933911e-02 0. 0. 0.
      0. 0. 0. 0. 0. 0. 0. 0.</_>
    <_>
      0. 2.11926684e-01 1.81651458e-01 0. 3.02752424e-02 3.02752435e-01
      3.02752424e-02 0. 0. 9.08257291e-02 0. 9.08257291e-02 0. 0.
      9.08257291e-02 0. 9.08257291e-02 0. 3.02752424e-02 3.02752424e-02
      0. 1.51376218e-01 9.08257291e-02 0. 0. 0. 0. 9.08257291e-02 0.
      1.51376218e-01 9.08257291e-02 0. 0. 3.02752424e-02 2.11926684e-01
      3.02752424e-02 0. 1.21100970e-01 1.51376218e-01 0. 0.
      1.81651458e-01 0. 0. 1.81651458e-01 1.21100970e-01 6.05504848e-02
      9.08257291e-02 6.05504848e-02 0. 9.08257291e-02 0. 1.51376218e-01
      2.11926684e-01 3.02752424e-02 3.02752424e-02 3.02752424e-02
      1.21100970e-01 2.11926684e-01 0. 0. 0. 0. 1.21100970e-01
      9.08257291e-02 0. 0. 2.42201939e-01 6.05504848e-02 0.
      6.05504848e-02 9.08257291e-02 2.72477180e-01 3.93578142e-01
      3.02752424e-02 0. 3.02752424e-02 6.05504848e-02 3.02752424e-02
      1.81651458e-01 3.02752424e-02 0. 6.05504848e-02 9.08257291e-02 0.
      3.02752424e-02 9.08257291e-02 6.05504848e-02 0. 0. 0. 0.
      3.02752424e-02 0. 0. 0. 0. 6.05504848e-02 0. 9.08257291e-02</_>
    <_>
      0. 0. 0. 0. 0. 3.88954915e-02 7.77909830e-02 3.88954915e-02 0.
      3.88954915e-02 0. 0. 3.88954915e-02 0. 1.16686471e-01 0.
      3.88954915e-02 3.88954915e-02 0. 0. 3.88954915e-02 0.
      3.88954915e-02 0. 0. 3.88954915e-02 3.88954915e-02 3.88954915e-02
      0. 7.77909830e-02 0. 0. 3.88954915e-02 0. 3.88954915e-02 0.
      7.77909830e-02 7.77909830e-02 3.88954915e-02 7.77909830e-02
      1.16686471e-01 0. 0. 0. 1.55581966e-01 7.77909830e-02
      3.88954915e-02 0. 0. 3.88954915e-02 0. 3.50059420e-01 0.
      1.94477454e-01 0. 7.77909830e-02 0. 3.88954915e-02 7.77909830e-02
      7.77909830e-02 1.16686471e-01 3.88954915e-02 1.94477454e-01 0. 0.
      7.77909830e-02 3.88954908e-01 0. 0. 3.88954915e-02 7.77909830e-02
      7.77909830e-02 0. 0. 0. 0. 0. 3.88954915e-02 0. 0. 1.16686471e-01
      1.94477454e-01 0. 7.77909830e-02 0. 0. 0. 7.77909830e-02 0. 0.
      6.22327864e-01 7.77909830e-02 3.88954915e-02 3.88954915e-02
      7.77909830e-02 3.88954915e-02 3.88954915e-02 0. 1.16686471e-01 0.</_>
    <_>
      0. 0. 0. 8.01497549e-02 5.34331687e-02 2.40449250e-01
      5.34331687e-02 5.34331687e-02 5.34331687e-02 5.34331687e-02
      2.93882430e-01 0. 0. 5.34331687e-02 8.01497549e-02 0.
      8.01497549e-02 2.67165843e-02 1.06866337e-01 5.34331687e-02 0. 0.
      2.67165843e-02 5.34331687e-02 0. 2.67165843e-02 3.20599020e-01
      5.34331687e-02 0. 5.34331687e-02 1.87016100e-01 8.01497549e-02 0.
      8.01497549e-02 2.67165843e-02 2.67165843e-02 1.60299510e-01
      2.67165843e-02 0. 2.67165843e-02 8.01497549e-02 2.67165843e-02
      5.34331687e-02 2.93882430e-01 0. 1.87016100e-01 0. 0.
      2.67165843e-02 1.33582920e-01 5.34331687e-02 8.01497549e-02 0.
      5.34331687e-02 0. 1.06866337e-01 1.33582920e-01 0. 8.01497549e-02
      1.06866337e-01 5.34331687e-02 2.67165843e-02 0. 0. 0.
      1.06866337e-01 2.40449250e-01 8.01497549e-02 5.34331687e-02 0.
      1.60299510e-01 2.67165843e-02 1.06866337e-01 0. 2.67165843e-02 0.
      5.34331687e-02 0. 5.34331687e-02 2.13732675e-01 2.67165843e-02
      5.34331687e-02 0. 0. 8.01497549e-02 8.01497549e-02 2.67165840e-01
      1.60299510e-01 8.01497549e-02 2.67165843e-02 1.60299510e-01
      1.06866337e-01 8.01497549e-02 0. 8.01497549e-02 2.40449250e-01 0.
      5.34331687e-02 0. 5.34331687e-02</_>
    <_>
      4.44603004e-02 0. 2.96402033e-02 2.96402033e-02 5.63163877e-01
      1.48201017e-02 8.89206007e-02 5.92804067e-02 1.48201017e-02
      2.96402033e-02 0. 0. 1.48201017e-02 1.18560813e-01 0.
      3.55682403e-01 0. 0. 0. 7.41005093e-02 1.18560813e-01
      1.48201017e-02 2.96402033e-02 1.48201017e-02 1.48201017e-02
      1.03740707e-01 1.48201019e-01 1.48201017e-02 2.07481414e-01
      1.48201017e-02 0. 1.63021117e-01 1.48201017e-02 2.51941711e-01
      2.66761839e-01 1.18560813e-01 4.44603004e-02 1.48201017e-02 0.
      1.48201017e-02 1.77841201e-01 4.44603004e-02 2.96402033e-02
      5.92804067e-02 8.89206007e-02 1.03740707e-01 4.44603004e-02
      4.44603004e-02 1.48201017e-02 2.96402033e-02 0. 2.96402033e-02 0.
      1.48201017e-02 5.92804067e-02 0. 1.33380920e-01 0. 0.
      1.48201017e-02 4.44603004e-02 0. 0. 2.96402033e-02 0. 0.
      4.44603004e-02 1.48201017e-02 1.48201017e-02 4.44603004e-02
      1.48201017e-02 7.41005093e-02 0. 1.48201017e-02 1.48201017e-02
      2.37121627e-01 0. 8.89206007e-02 4.44603004e-02 0. 8.89206007e-02
      1.48201017e-02 2.96402033e-02 1.48201017e-02 7.41005093e-02 0.
      1.92661315e-01 7.41005093e-02 2.96402033e-02 5.92804067e-02
      2.96402033e-02 0. 5.92804067e-02 1.48201017e-02 8.89206007e-02
      7.41005093e-02 1.48201017e-02 7.41005093e-02 2.96402033e-02
      1.48201017e-02</_>
    <_>
      0. 4.64238316e-01 3.09492219e-02 0. 0. 4.33289081e-01 0.
      1.54746115e-01 0. 3.09492219e-02 1.85695335e-01 6.18984438e-02 0.
      0. 0. 0. 1.85695335e-01 0. 1.23796888e-01 3.09492219e-02 0.
      9.28476676e-02 3.09492219e-02 0. 0. 6.18984438e-02 0.
      6.18984438e-02 0. 1.54746115e-01 1.23796888e-01 0. 3.09492219e-02
      3.09492219e-02 1.54746115e-01 0. 0. 1.23796888e-01 0.
      3.09492219e-02 0. 1.54746115e-01 0. 0. 0. 0. 0. 2.16644540e-01 0.
      3.09492219e-02 1.23796888e-01 0. 1.85695335e-01 0. 6.18984438e-02
      0. 0. 3.09492219e-02 1.85695335e-01 0. 0. 0. 0. 1.23796888e-01 0.
      0. 6.18984438e-02 2.47593775e-01 1.23796888e-01 0. 0. 0.
      1.85695335e-01 0. 3.09492219e-02 0. 3.09492219e-02 6.18984438e-02
      6.18984438e-02 2.47593775e-01 3.09492219e-02 0. 3.09492219e-02 0.
      3.09492219e-02 0. 0. 0. 3.09492219e-02 0. 0. 3.09492219e-02 0. 0.
      0. 0. 0. 0. 3.09492219e-02 1.23796888e-01</_>
    <_>
      2.18373928e-02 6.55121729e-02 1.09186964e-02 5.45934811e-02 0. 0.
      0. 1.09186964e-02 1.09186964e-02 3.27560864e-02 4.36747856e-02 0.
      4.36747856e-02 1.20105654e-01 3.82154346e-01 0. 3.27560864e-02 0.
      3.27560864e-02 0. 0. 3.27560864e-02 4.36747856e-02 0.
      1.09186964e-02 1.09186964e-02 0. 3.27560864e-02 1.09186964e-02 0.
      0. 0. 5.45934811e-02 0. 0. 1.20105654e-01 1.31024346e-01
      1.09186964e-02 1.09186964e-02 8.73495713e-02 1.20105654e-01 0.
      1.09186964e-02 0. 5.45934811e-02 0. 0. 5.45934811e-02 0.
      4.36747856e-02 0. 3.27560902e-01 0. 1.09186964e-02 0.
      4.36747856e-02 0. 0. 1.09186964e-02 2.18373928e-02 2.18373928e-02
      5.45934811e-02 5.67772150e-01 0. 0. 2.18373928e-02 2.94804811e-01
      0. 0. 0. 8.73495713e-02 6.55121729e-02 4.36747856e-02 0.
      1.09186964e-02 0. 2.18373928e-02 2.18373928e-02 1.09186964e-02 0.
      2.18373928e-02 3.16642195e-01 4.36747856e-02 6.55121729e-02
      1.09186964e-02 3.27560864e-02 5.45934811e-02 1.09186964e-02
      1.09186964e-02 3.27560864e-02 3.16642195e-01 2.18373928e-02
      1.09186964e-02 3.27560864e-02 4.36747856e-02 2.18373928e-02
      1.09186964e-02 1.09186964e-02 0. 0.</_>
    <_>
      8.12498108e-02 2.27499455e-01 8.12498108e-02 1.13749728e-01 0. 0.
      0. 1.13749728e-01 1.62499622e-02 0. 1.62499622e-02 1.94999546e-01
      3.24999243e-02 1.94999546e-01 1.46249667e-01 0. 2.59999394e-01
      4.87498865e-02 1.29999697e-01 9.74997729e-02 3.24999243e-02 0.
      3.24999243e-02 8.12498108e-02 3.24999243e-02 9.74997729e-02
      1.62499622e-02 1.29999697e-01 6.49998486e-02 8.12498108e-02
      3.24999243e-02 1.62499622e-01 3.24999243e-02 3.24999243e-02
      1.13749728e-01 3.24999243e-02 1.29999697e-01 4.87498865e-02 0.
      3.24999243e-02 6.49998486e-02 1.62499622e-02 3.24999243e-02
      9.74997729e-02 0. 1.62499622e-02 1.78749576e-01 3.24999243e-02
      3.24999243e-02 2.76249379e-01 0. 1.62499622e-01 0. 0. 0.
      3.73749137e-01 1.62499622e-02 8.12498108e-02 3.24999243e-02
      1.13749728e-01 3.24999243e-02 8.12498108e-02 1.46249667e-01
      1.13749728e-01 3.24999243e-02 4.87498865e-02 1.78749576e-01
      8.12498108e-02 1.62499622e-02 0. 1.13749728e-01 9.74997729e-02
      4.87498865e-02 9.74997729e-02 4.87498865e-02 0. 3.24999243e-02
      6.49998486e-02 0. 3.24999243e-02 3.24999243e-02 2.59999394e-01
      1.62499622e-02 6.49998486e-02 0. 1.13749728e-01 4.87498865e-02
      8.12498108e-02 4.87498865e-02 9.74997729e-02 1.46249667e-01
      1.29999697e-01 4.87498865e-02 0. 4.87498865e-02 4.87498865e-02
      8.12498108e-02 4.87498865e-02 1.62499622e-02 3.24999243e-02</_>
    <_>
      0. 0. 0. 4.39374782e-02 0. 0. 0. 0. 4.39374782e-02 8.78749564e-02
      8.78749564e-02 1.31812423e-01 0. 0. 2.19687387e-01 4.39374775e-01
      1.75749913e-01 0. 0. 3.07562351e-01 0. 0. 4.39374782e-02
      4.39374782e-02 0. 0. 4.39374782e-02 0. 8.78749564e-02
      8.78749564e-02 4.39374782e-02 0. 0. 4.39374782e-02 4.39374775e-01
      2.63624847e-01 0. 4.39374782e-02 0. 0. 1.31812423e-01
      4.39374782e-02 4.39374782e-02 8.78749564e-02 4.39374782e-02
      4.39374782e-02 0. 0. 0. 8.78749564e-02 4.39374782e-02 0.
      1.31812423e-01 8.78749564e-02 0. 0. 0. 8.78749564e-02
      8.78749564e-02 0. 0. 0. 0. 0. 0. 0. 4.39374782e-02 8.78749564e-02
      4.39374782e-02 0. 4.39374782e-02 3.51499826e-01 8.78749564e-02
      8.78749564e-02 0. 0. 8.78749564e-02 0. 8.78749564e-02
      4.39374782e-02 0. 4.39374782e-02 0. 0. 8.78749564e-02 0. 0.
      8.78749564e-02 4.39374782e-02 0. 0. 0. 4.39374782e-02 0.
      4.39374782e-02 1.75749913e-01 0. 0. 0. 0.</_>
    <_>
      1.01492770e-01 0. 1.82686985e-01 1.21791326e-01 0. 4.05971073e-02
      0. 1.62388429e-01 6.08956628e-02 4.05971073e-02 2.02985536e-02
      6.08956628e-02 1.01492770e-01 4.05971073e-02 2.02985540e-01 0.
      2.02985540e-01 2.02985536e-02 6.08956628e-02 8.11942145e-02 0.
      1.21791326e-01 4.05971073e-02 0. 4.05971073e-02 0. 0.
      1.01492770e-01 6.08956628e-02 2.02985536e-02 0. 2.02985536e-02 0.
      4.05971073e-02 4.05971073e-02 4.05971073e-02 1.42089888e-01
      1.01492770e-01 0. 1.01492770e-01 2.02985536e-02 1.42089888e-01
      2.02985536e-02 0. 2.43582651e-01 8.11942145e-02 0. 6.08956628e-02
      1.42089888e-01 8.11942145e-02 0. 1.21791326e-01 0. 0.
      4.05971073e-02 4.46568221e-01 0. 1.21791326e-01 2.02985536e-02 0.
      1.21791326e-01 1.21791326e-01 1.21791326e-01 1.82686985e-01 0. 0.
      2.43582651e-01 6.08956628e-02 6.08956628e-02 0. 2.02985536e-02
      2.02985540e-01 2.02985536e-02 1.21791326e-01 1.01492770e-01
      2.02985536e-02 2.02985536e-02 6.08956628e-02 4.05971073e-02 0.
      4.05971073e-02 1.01492770e-01 1.82686985e-01 2.43582651e-01
      2.02985536e-02 4.05971073e-02 4.05971073e-02 6.08956628e-02
      2.02985536e-02 0. 6.08956628e-02 4.05971073e-02 1.21791326e-01
      8.11942145e-02 2.02985536e-02 4.05971073e-02 2.02985536e-02
      8.11942145e-02 6.08956628e-02 4.05971073e-02</_>
    <_>
      3.44367214e-02 1.37746885e-01 8.60918090e-02 6.88734427e-02
      1.72183607e-02 0. 3.44367214e-02 3.44367214e-02 5.16550839e-02
      5.16550839e-02 1.72183607e-02 1.72183607e-02 6.88734427e-02
      1.37746885e-01 5.68205953e-01 0. 3.44367214e-02 6.88734427e-02
      1.20528534e-01 1.72183607e-02 1.72183607e-02 8.60918090e-02 0.
      1.72183607e-02 0. 0. 1.72183607e-02 3.44367214e-02 0.
      5.16550839e-02 0. 0. 5.16550839e-02 8.60918090e-02 0.
      1.72183607e-02 6.88734427e-02 5.16550839e-02 3.44367214e-02
      1.72183607e-02 1.89401969e-01 0. 3.44367214e-02 0. 3.44367214e-02
      0. 5.16550839e-02 3.44367214e-02 3.44367214e-02 8.60918090e-02 0.
      6.88734427e-02 0. 0. 0. 3.78803939e-01 1.72183607e-02
      1.72183607e-02 3.44367214e-02 1.03310168e-01 1.89401969e-01
      1.37746885e-01 0. 0. 3.44367214e-02 8.60918090e-02 1.37746885e-01
      1.72183607e-02 3.44367214e-02 1.72183607e-02 1.72183607e-02
      8.60918090e-02 6.88734427e-02 0. 3.44367214e-02 3.44367214e-02
      1.37746885e-01 8.60918090e-02 5.16550839e-02 0. 1.89401969e-01
      1.20528534e-01 1.72183607e-02 2.06620336e-01 1.20528534e-01
      2.06620336e-01 0. 1.72183607e-02 1.72183607e-02 3.44367214e-02
      8.60918090e-02 0. 5.16550839e-02 3.44367214e-02 8.60918090e-02
      1.03310168e-01 1.54965252e-01 1.20528534e-01 1.72183607e-02
      1.72183607e-02</_>
    <_>
      0. 0. 0. 0. 0. 9.36585814e-02 0. 3.12195271e-01 1.24878109e-01
      3.12195271e-02 0. 0. 3.12195271e-02 0. 0. 0. 2.18536705e-01 0.
      9.36585814e-02 3.12195271e-02 9.36585814e-02 0. 0. 0. 0. 0. 0.
      1.87317163e-01 0. 3.12195271e-02 0. 0. 3.12195271e-02
      3.12195271e-02 6.86829627e-01 9.36585814e-02 0. 0. 3.12195271e-02
      0. 0. 3.12195271e-02 0. 0. 0. 0. 3.12195271e-02 0. 0.
      3.12195271e-02 3.12195271e-02 6.24390543e-02 0. 3.12195271e-02 0.
      0. 0. 3.12195271e-02 0. 0. 3.12195271e-02 0. 3.12195271e-02 0. 0.
      0. 3.12195271e-02 0. 0. 0. 0. 4.05853838e-01 0. 1.87317163e-01
      3.12195271e-02 0. 0. 2.18536705e-01 0. 9.36585814e-02
      3.12195271e-02 0. 0. 6.24390543e-02 0. 6.24390543e-02
      3.12195271e-02 6.24390543e-02 0. 3.12195271e-02 0. 3.12195271e-02
      0. 3.12195271e-02 0. 0. 0. 6.24390543e-02 0. 0.</_>
    <_>
      1.84900075e-01 4.62250188e-02 9.24500376e-02 1.84900075e-01
      9.24500376e-02 1.38675049e-01 9.24500376e-02 4.62250188e-02
      4.62250188e-02 9.24500376e-02 0. 2.31125101e-01 0. 0.
      1.84900075e-01 0. 1.38675049e-01 0. 9.24500376e-02 0.
      4.62250188e-02 0. 1.84900075e-01 4.62250188e-02 4.62250188e-02
      9.24500376e-02 0. 9.24500376e-02 4.62250188e-02 1.38675049e-01
      9.24500376e-02 4.62250188e-02 0. 4.62250188e-02 4.62250188e-02
      1.38675049e-01 2.31125101e-01 0. 4.62250188e-02 0. 4.62250188e-02
      4.62250188e-02 4.62250188e-02 4.62250188e-02 4.62250188e-02
      9.24500376e-02 4.62250188e-02 0. 1.84900075e-01 2.31125101e-01
      4.62250188e-02 1.38675049e-01 0. 9.24500376e-02 9.24500376e-02
      4.62250188e-02 0. 9.24500376e-02 0. 0. 1.84900075e-01
      9.24500376e-02 4.62250188e-02 0. 4.62250188e-02 0. 0.
      4.62250188e-02 0. 0. 0. 9.24500376e-02 4.62250188e-02 0.
      1.84900075e-01 4.62250188e-02 4.62250188e-02 1.38675049e-01
      4.62250188e-02 4.62250188e-02 4.62250188e-02 1.84900075e-01
      1.84900075e-01 3.69800150e-01 4.62250188e-02 0. 4.62250188e-02
      2.31125101e-01 0. 0. 0. 4.62250188e-02 4.62250188e-02
      4.62250188e-02 0. 0. 4.62250188e-02 1.84900075e-01 0. 0.</_>
    <_>
      0. 5.89255653e-02 5.89255653e-02 5.89255653e-02 0. 5.89255653e-02
      0. 2.94627815e-01 1.17851131e-01 5.89255653e-02 0. 0. 0. 0.
      1.76776692e-01 0. 5.89255653e-02 0. 1.17851131e-01 5.89255653e-02
      0. 0. 0. 0. 0. 0. 0. 1.76776692e-01 0. 0. 2.35702261e-01 0. 0.
      5.89255653e-02 6.48181200e-01 0. 0. 0. 0. 0. 0. 0. 0. 0. 0. 0. 0.
      0. 5.89255653e-02 5.89255653e-02 0. 0. 0. 3.53553385e-01 0. 0. 0.
      5.89255653e-02 1.17851131e-01 0. 5.89255653e-02 0. 0.
      1.17851131e-01 0. 0. 0. 0. 0. 0. 0. 2.35702261e-01 1.17851131e-01
      0. 1.17851131e-01 0. 0. 0. 0. 2.35702261e-01 0. 0. 1.17851131e-01
      0. 0. 0. 0. 0. 0. 0. 0. 0. 0. 0. 0. 0. 0. 0. 0. 0.</_>
    <_>
      1.47945344e-01 2.58904338e-01 1.84931681e-01 3.69863361e-02 0.
      1.10959008e-01 0. 3.69863361e-02 1.84931681e-01 7.39726722e-02 0.
      2.58904338e-01 1.10959008e-01 0. 3.69863361e-02 3.69863361e-02
      1.47945344e-01 0. 1.10959008e-01 0. 7.39726722e-02 0.
      3.69863361e-02 0. 1.47945344e-01 0. 0. 2.21918017e-01 0.
      3.69863361e-02 2.21918017e-01 0. 7.39726722e-02 3.69863361e-02
      1.47945344e-01 7.39726722e-02 3.69863361e-02 0. 0. 0. 0. 0. 0. 0.
      0. 0. 1.10959008e-01 0. 0. 3.69863361e-02 3.69863361e-02
      3.69863361e-02 1.47945344e-01 0. 3.69863361e-02 0. 0.
      7.39726722e-02 1.47945344e-01 0. 2.21918017e-01 3.69863361e-02 0.
      1.10959008e-01 0. 3.69863361e-02 3.69863361e-02 1.10959008e-01 0.
      0. 0. 2.58904338e-01 1.47945344e-01 3.69863361e-02 1.47945344e-01
      7.39726722e-02 0. 1.84931681e-01 0. 2.58904338e-01 0. 0. 0.
      7.39726722e-02 0. 1.47945344e-01 0. 2.21918017e-01 0. 0. 0.
      2.21918017e-01 0. 3.69863361e-02 0. 0. 3.69863361e-02
      2.21918017e-01 0. 0.</_>
    <_>
      6.66666701e-02 0. 2.00000003e-01 6.66666701e-02 0. 0. 0.
      1.33333340e-01 0. 0. 0. 6.66666701e-02 2.00000003e-01 0. 0. 0.
      6.66666701e-02 0. 6.66666701e-02 0. 6.66666701e-02 0. 0. 0.
      6.66666701e-02 6.66666701e-02 0. 0. 0. 6.66666701e-02
      1.33333340e-01 6.66666701e-02 0. 0. 4.66666698e-01 0. 0. 0.
      2.66666681e-01 0. 0. 0. 0. 0. 0. 0. 0. 0. 1.33333340e-01
      1.33333340e-01 0. 0. 6.66666701e-02 0. 0. 0. 0. 2.66666681e-01
      6.66666701e-02 6.66666701e-02 6.66666701e-02 0. 1.33333340e-01 0.
      1.33333340e-01 0. 1.33333340e-01 0. 0. 0. 0. 5.33333361e-01 0.
      6.66666701e-02 0. 6.66666701e-02 0. 6.66666701e-02 0.
      1.33333340e-01 6.66666701e-02 0. 6.66666701e-02 0. 0. 0. 0.
      6.66666701e-02 0. 0. 1.33333340e-01 1.33333340e-01 0.
      6.66666701e-02 0. 0. 0. 6.66666701e-02 0. 0.</_>
    <_>
      0. 7.16114864e-02 1.43222973e-01 0. 1.43222973e-01 1.43222973e-01
      0. 0. 2.86445946e-01 7.16114864e-02 1.43222973e-01 7.16114864e-02
      7.16114864e-02 0. 0. 0. 7.16114864e-02 0. 7.16114864e-02 0. 0.
      2.14834467e-01 0. 7.16114864e-02 0. 0. 0. 0. 0. 7.16114864e-02
      7.16114864e-02 0. 3.58057410e-01 0. 2.86445946e-01 0. 0. 0.
      1.43222973e-01 7.16114864e-02 7.16114864e-02 0. 0. 0.
      7.16114864e-02 0. 0. 0. 0. 7.16114864e-02 0. 7.16114864e-02 0.
      7.16114864e-02 0. 2.14834467e-01 0. 2.14834467e-01 1.43222973e-01
      2.14834467e-01 0. 0. 1.43222973e-01 0. 7.16114864e-02
      1.43222973e-01 0. 7.16114864e-02 7.16114864e-02 0. 0.
      7.16114864e-02 2.86445946e-01 1.43222973e-01 7.16114864e-02 0. 0.
      2.86445946e-01 0. 0. 0. 0. 0. 0. 0. 0. 0. 0. 1.43222973e-01 0.
      1.43222973e-01 0. 7.16114864e-02 0. 1.43222973e-01 0. 0. 0. 0.
      7.16114864e-02</_>
    <_>
      0. 7.14285672e-02 0. 0. 0. 1.42857134e-01 0. 6.42857134e-01 0. 0.
      0. 7.14285672e-02 0. 0. 7.14285672e-02 0. 1.42857134e-01 0. 0. 0.
      0. 0. 0. 0. 0. 0. 0. 7.14285672e-02 0. 0. 2.85714269e-01 0. 0. 0.
      1.42857134e-01 0. 0. 0. 0. 7.14285672e-02 0. 0. 0. 0.
      7.14285672e-02 0. 0. 0. 0. 0. 0. 0. 7.14285672e-02 0.
      7.14285672e-02 0. 0. 1.42857134e-01 7.14285672e-02 7.14285672e-02
      0. 0. 0. 0. 0. 0. 0. 2.85714269e-01 0. 0. 0. 0. 0. 0. 0. 0. 0. 0.
      7.14285672e-02 1.42857134e-01 2.14285702e-01 0. 2.85714269e-01
      2.85714269e-01 0. 0. 0. 7.14285672e-02 0. 0. 0. 0. 0.
      7.14285672e-02 0. 0. 0. 2.14285702e-01 0. 0.</_>
    <_>
      5.01569882e-02 0. 7.52354786e-02 0. 0. 2.50784941e-02 0.
      2.50784941e-02 0. 5.01569882e-02 0. 5.01569882e-02 2.50784941e-02
      2.50784941e-02 0. 2.50784941e-02 5.01569882e-02 0. 2.50784941e-02
      5.01569882e-02 0. 0. 5.01569882e-02 7.52354786e-02 8.02511811e-01
      2.50784941e-02 7.52354786e-02 1.00313976e-01 0. 1.75549448e-01
      2.00627953e-01 0. 0. 0. 1.75549448e-01 0. 0. 5.01569882e-02
      2.75863409e-01 0. 2.50784941e-02 0. 2.50784941e-02 0. 0. 0.
      5.01569882e-02 0. 0. 1.00313976e-01 5.01569882e-02 0.
      5.01569882e-02 5.01569882e-02 1.00313976e-01 0. 0. 1.00313976e-01
      2.50784941e-02 0. 2.50784941e-02 2.50784941e-02 0. 0.
      2.50784941e-02 0. 2.50784941e-02 7.52354786e-02 2.50784941e-02 0.
      2.50784941e-02 1.50470957e-01 7.52354786e-02 0. 7.52354786e-02 0.
      0. 5.01569882e-02 0. 1.00313976e-01 5.01569882e-02 1.00313976e-01
      1.25392467e-01 2.50784941e-02 2.50784941e-02 2.50784941e-02 0. 0.
      0. 0. 0. 0. 0. 0. 0. 0. 0. 0. 0. 2.50784941e-02</_>
    <_>
      1.39723942e-01 4.65746447e-02 0. 4.65746447e-02 0. 9.31492895e-02
      0. 5.12321115e-01 1.39723942e-01 0. 4.65746447e-02 0. 0.
      4.65746447e-02 4.65746447e-02 0. 1.86298579e-01 0. 9.31492895e-02
      0. 0. 0. 4.65746447e-02 9.31492895e-02 1.39723942e-01
      4.65746447e-02 0. 1.39723942e-01 0. 1.39723942e-01 1.86298579e-01
      0. 0. 0. 5.12321115e-01 0. 0. 0. 4.65746447e-02 4.65746447e-02 0.
      0. 0. 0. 4.65746447e-02 0. 0. 0. 1.39723942e-01 4.65746447e-02
      4.65746447e-02 4.65746447e-02 4.65746447e-02 0. 4.65746447e-02 0.
      0. 2.32873231e-01 9.31492895e-02 0. 9.31492895e-02 1.39723942e-01
      0. 9.31492895e-02 0. 4.65746447e-02 0. 9.31492895e-02 0. 0.
      9.31492895e-02 9.31492895e-02 4.65746447e-02 0. 4.65746447e-02 0.
      0. 4.65746447e-02 0. 9.31492895e-02 1.86298579e-01 0.
      4.65746447e-02 4.65746447e-02 0. 9.31492895e-02 0. 1.39723942e-01
      0. 0. 0. 9.31492895e-02 0. 0. 0. 0. 0. 9.31492895e-02
      4.65746447e-02 0.</_>
    <_>
      3.19601409e-02 0. 0. 0. 0. 9.58804190e-02 0. 3.19601387e-01
      2.23720983e-01 0. 0. 0. 1.27840564e-01 0. 0. 0. 0. 0. 0. 0. 0. 0.
      0. 0. 3.19601409e-02 3.19601409e-02 0. 1.27840564e-01 0.
      6.39202818e-02 6.39202818e-02 0. 6.39202818e-02 0. 7.35083222e-01
      2.55681127e-01 0. 3.19601409e-02 3.19601409e-02 6.39202818e-02
      6.39202818e-02 0. 0. 0. 3.19601409e-02 0. 6.39202818e-02 0. 0.
      3.19601409e-02 0. 0. 0. 0. 3.19601409e-02 0. 0. 6.39202818e-02 0.
      0. 3.19601409e-02 0. 0. 0. 1.27840564e-01 0. 9.58804190e-02
      1.27840564e-01 0. 0. 0. 1.59800693e-01 3.19601409e-02 0.
      3.19601409e-02 0. 0. 1.27840564e-01 0. 9.58804190e-02
      9.58804190e-02 3.19601409e-02 1.59800693e-01 3.19601409e-02
      3.19601409e-02 0. 3.19601409e-02 1.27840564e-01 0. 3.19601409e-02
      0. 0. 3.19601409e-02 3.19601409e-02 0. 0. 0. 9.58804190e-02 0. 0.</_>
    <_>
